svm_type c_svc
kernel_type rbf
gamma 55
nr_class 2
total_sv 230
rho 0.806077
label 0 1
nr_sv 110 120
SV
0.3040490802857346 1:0.11428571 2:0.12857143 3:0.071428571 4:0.057142857 5:0.014285714 6:0 7:0.042857143 8:0.071428571 9:0.085714286 10:0.12857143 11:0.085714286 12:0.085714286 13:0 14:0 15:0.042857143 16:0 17:0.028571429 18:0.014285714 19:0 20:0.028571429 
0.7324094988298007 1:0.014285714 2:0.14285714 3:0.014285714 4:0.028571429 5:0.028571429 6:0.042857143 7:0.057142857 8:0.042857143 9:0.12857143 10:0.042857143 11:0.014285714 12:0.085714286 13:0 14:0 15:0.057142857 16:0.014285714 17:0.12857143 18:0.071428571 19:0.028571429 20:0.057142857 
0.4162079117715959 1:0.042857143 2:0.14285714 3:0.14285714 4:0.014285714 5:0.071428571 6:0.014285714 7:0.028571429 8:0 9:0.042857143 10:0.014285714 11:0.057142857 12:0.028571429 13:0 14:0.014285714 15:0.028571429 16:0.071428571 17:0 18:0.1 19:0.12857143 20:0.057142857 
0.2441776035307234 1:0.085714286 2:0.071428571 3:0.11428571 4:0.014285714 5:0.057142857 6:0.014285714 7:0.014285714 8:0.014285714 9:0.085714286 10:0.028571429 11:0.071428571 12:0.014285714 13:0 14:0 15:0.042857143 16:0.042857143 17:0.042857143 18:0.18571429 19:0.071428571 20:0.028571429 
1 1:0.057142857 2:0.2 3:0.028571429 4:0.014285714 5:0.014285714 6:0 7:0.014285714 8:0.042857143 9:0.11428571 10:0 11:0.085714286 12:0.042857143 13:0.014285714 14:0.014285714 15:0.028571429 16:0.042857143 17:0.12857143 18:0.042857143 19:0.071428571 20:0.042857143 
1 1:0.071428571 2:0.25714286 3:0.042857143 4:0.028571429 5:0.042857143 6:0.085714286 7:0.028571429 8:0.057142857 9:0.085714286 10:0.028571429 11:0.057142857 12:0.028571429 13:0.014285714 14:0.028571429 15:0.042857143 16:0 17:0.042857143 18:0.042857143 19:0.014285714 20:0 
0.5226422746886314 1:0.042857143 2:0.2 3:0.042857143 4:0.014285714 5:0.028571429 6:0 7:0.028571429 8:0.085714286 9:0.085714286 10:0.028571429 11:0.028571429 12:0.085714286 13:0.014285714 14:0.071428571 15:0.11428571 16:0 17:0.028571429 18:0.057142857 19:0 20:0.042857143 
0.2503151277126707 1:0.028571429 2:0.17142857 3:0.071428571 4:0.014285714 5:0.014285714 6:0 7:0.028571429 8:0.071428571 9:0.1 10:0.071428571 11:0.071428571 12:0.085714286 13:0.028571429 14:0.028571429 15:0.028571429 16:0.042857143 17:0.014285714 18:0.057142857 19:0.014285714 20:0.057142857 
0.3075934544302026 1:0.042857143 2:0.14285714 3:0.028571429 4:0.014285714 5:0 6:0 7:0.057142857 8:0 9:0.15714286 10:0.042857143 11:0 12:0.085714286 13:0 14:0.042857143 15:0.1 16:0.014285714 17:0.057142857 18:0.1 19:0.028571429 20:0.085714286 
1 1:0.1 2:0.11428571 3:0.028571429 4:0.014285714 5:0.014285714 6:0.014285714 7:0 8:0.071428571 9:0.28571429 10:0.028571429 11:0.042857143 12:0.028571429 13:0 14:0 15:0 16:0.071428571 17:0 18:0.11428571 19:0.014285714 20:0.057142857 
0.2229573483828649 1:0.028571429 2:0.057142857 3:0.042857143 4:0.028571429 5:0.1 6:0 7:0 8:0.071428571 9:0.11428571 10:0.028571429 11:0.057142857 12:0.014285714 13:0.028571429 14:0.071428571 15:0.014285714 16:0.042857143 17:0.11428571 18:0.057142857 19:0.085714286 20:0.042857143 
0.2943389218610036 1:0.11428571 2:0.071428571 3:0.014285714 4:0.028571429 5:0.028571429 6:0 7:0.014285714 8:0.14285714 9:0.042857143 10:0.057142857 11:0.057142857 12:0.028571429 13:0.085714286 14:0.028571429 15:0.071428571 16:0.042857143 17:0.071428571 18:0.085714286 19:0 20:0.014285714 
0.6407263331459159 1:0.028571429 2:0.18571429 3:0.042857143 4:0.028571429 5:0.028571429 6:0.014285714 7:0.028571429 8:0.028571429 9:0.014285714 10:0.014285714 11:0.12857143 12:0.057142857 13:0.042857143 14:0.057142857 15:0.028571429 16:0.071428571 17:0.028571429 18:0.071428571 19:0.028571429 20:0.071428571 
0.2935397363035774 1:0.11428571 2:0.042857143 3:0.14285714 4:0.014285714 5:0.014285714 6:0 7:0.028571429 8:0.1 9:0.057142857 10:0.071428571 11:0.057142857 12:0.057142857 13:0.014285714 14:0.028571429 15:0 16:0.057142857 17:0.014285714 18:0.085714286 19:0.085714286 20:0.014285714 
1 1:0.071428571 2:0.1 3:0.042857143 4:0.028571429 5:0.028571429 6:0 7:0.042857143 8:0.071428571 9:0.071428571 10:0.042857143 11:0.18571429 12:0.042857143 13:0 14:0.028571429 15:0.028571429 16:0.042857143 17:0.042857143 18:0.085714286 19:0.014285714 20:0.028571429 
1 1:0.11428571 2:0.1 3:0.057142857 4:0.042857143 5:0.014285714 6:0 7:0.042857143 8:0.11428571 9:0.18571429 10:0.014285714 11:0.042857143 12:0.028571429 13:0.014285714 14:0.014285714 15:0 16:0.042857143 17:0.014285714 18:0.042857143 19:0.071428571 20:0.042857143 
0.06159562013190475 1:0.014285714 2:0.11428571 3:0.028571429 4:0.042857143 5:0.057142857 6:0 7:0.057142857 8:0.057142857 9:0.042857143 10:0.028571429 11:0.1 12:0.028571429 13:0 14:0.014285714 15:0.071428571 16:0.042857143 17:0.11428571 18:0.042857143 19:0.1 20:0.042857143 
0.7069413085288192 1:0.1 2:0.085714286 3:0.028571429 4:0.028571429 5:0.028571429 6:0 7:0.014285714 8:0.12857143 9:0.12857143 10:0.028571429 11:0.057142857 12:0.15714286 13:0 14:0.014285714 15:0.014285714 16:0.042857143 17:0 18:0.085714286 19:0 20:0.057142857 
1 1:0.1 2:0.085714286 3:0.042857143 4:0.042857143 5:0.014285714 6:0 7:0.014285714 8:0.2 9:0.085714286 10:0.042857143 11:0.042857143 12:0.071428571 13:0 14:0.014285714 15:0.1 16:0.057142857 17:0 18:0.014285714 19:0.014285714 20:0.057142857 
1 1:0.042857143 2:0.14285714 3:0.12857143 4:0.014285714 5:0.014285714 6:0 7:0.028571429 8:0 9:0.042857143 10:0.028571429 11:0.11428571 12:0.028571429 13:0 14:0 15:0.028571429 16:0.14285714 17:0 18:0.042857143 19:0.14285714 20:0.057142857 
0.7739431625390746 1:0.028571429 2:0.1 3:0.17142857 4:0.057142857 5:0.057142857 6:0.028571429 7:0.014285714 8:0.12857143 9:0.15714286 10:0.014285714 11:0.057142857 12:0.057142857 13:0.014285714 14:0.028571429 15:0 16:0.028571429 17:0.014285714 18:0.042857143 19:0 20:0 
0.3824122710116753 1:0.014285714 2:0.11428571 3:0.11428571 4:0.071428571 5:0.028571429 6:0.028571429 7:0.028571429 8:0.12857143 9:0.11428571 10:0.042857143 11:0.1 12:0.1 13:0.014285714 14:0.014285714 15:0 16:0.014285714 17:0.028571429 18:0.014285714 19:0.028571429 20:0 
0.6695202992694285 1:0.14285714 2:0.028571429 3:0.028571429 4:0.071428571 5:0.014285714 6:0 7:0.028571429 8:0.12857143 9:0.057142857 10:0.057142857 11:0.028571429 12:0.042857143 13:0.057142857 14:0.057142857 15:0 16:0.11428571 17:0 18:0.085714286 19:0.028571429 20:0.028571429 
0.5806965763088152 1:0.071428571 2:0.085714286 3:0.1 4:0.028571429 5:0.042857143 6:0 7:0 8:0.11428571 9:0 10:0.057142857 11:0.14285714 12:0.042857143 13:0.014285714 14:0.057142857 15:0.1 16:0.057142857 17:0.028571429 18:0.042857143 19:0 20:0.014285714 
0.6938263031270252 1:0.085714286 2:0.042857143 3:0.028571429 4:0.071428571 5:0 6:0 7:0.042857143 8:0 9:0.071428571 10:0.028571429 11:0.028571429 12:0.042857143 13:0 14:0.042857143 15:0.028571429 16:0.21428571 17:0.028571429 18:0.12857143 19:0.071428571 20:0.042857143 
0.8342188703188027 1:0.042857143 2:0.057142857 3:0.1 4:0.028571429 5:0.085714286 6:0 7:0.028571429 8:0.1 9:0.18571429 10:0.014285714 11:0.028571429 12:0.071428571 13:0 14:0.042857143 15:0.057142857 16:0.042857143 17:0.042857143 18:0.042857143 19:0.014285714 20:0.014285714 
0.562362039966936 1:0.15714286 2:0.1 3:0.057142857 4:0.028571429 5:0.014285714 6:0 7:0 8:0.11428571 9:0.071428571 10:0 11:0.028571429 12:0.042857143 13:0.057142857 14:0 15:0.042857143 16:0.071428571 17:0.085714286 18:0.042857143 19:0.028571429 20:0.057142857 
0.2145630091362785 1:0.042857143 2:0.14285714 3:0.014285714 4:0.042857143 5:0 6:0.057142857 7:0.028571429 8:0.12857143 9:0.1 10:0.042857143 11:0.057142857 12:0.028571429 13:0.057142857 14:0.014285714 15:0.071428571 16:0.014285714 17:0.057142857 18:0.057142857 19:0 20:0.042857143 
0.9334997932777706 1:0.085714286 2:0.057142857 3:0.071428571 4:0.014285714 5:0.057142857 6:0 7:0.014285714 8:0.071428571 9:0.014285714 10:0.042857143 11:0.014285714 12:0.042857143 13:0.071428571 14:0 15:0.028571429 16:0.1 17:0.057142857 18:0.2 19:0.014285714 20:0.042857143 
0.113846013888512 1:0.014285714 2:0.11428571 3:0.1 4:0.014285714 5:0.014285714 6:0.028571429 7:0.085714286 8:0.042857143 9:0.1 10:0 11:0.071428571 12:0.028571429 13:0.028571429 14:0.042857143 15:0.028571429 16:0.042857143 17:0.11428571 18:0.028571429 19:0.057142857 20:0.042857143 
1 1:0.17142857 2:0.085714286 3:0 4:0.014285714 5:0.071428571 6:0 7:0 8:0.071428571 9:0.14285714 10:0.085714286 11:0.085714286 12:0.028571429 13:0.028571429 14:0.028571429 15:0.1 16:0.028571429 17:0 18:0.042857143 19:0.014285714 20:0 
0.7570693294415722 1:0.1 2:0.17142857 3:0 4:0.042857143 5:0.014285714 6:0 7:0.028571429 8:0.14285714 9:0.028571429 10:0.014285714 11:0.085714286 12:0.057142857 13:0 14:0 15:0.085714286 16:0.028571429 17:0.028571429 18:0.057142857 19:0.042857143 20:0.071428571 
1 1:0.11428571 2:0.11428571 3:0.11428571 4:0.014285714 5:0.1 6:0.042857143 7:0.028571429 8:0.057142857 9:0.085714286 10:0.028571429 11:0.12857143 12:0.028571429 13:0.014285714 14:0.014285714 15:0 16:0.028571429 17:0.042857143 18:0 19:0.014285714 20:0.028571429 
0.7866802562208373 1:0.042857143 2:0.085714286 3:0.028571429 4:0.071428571 5:0 6:0 7:0.042857143 8:0.028571429 9:0.14285714 10:0.014285714 11:0.042857143 12:0.028571429 13:0 14:0.014285714 15:0.028571429 16:0.2 17:0.028571429 18:0.085714286 19:0.085714286 20:0.028571429 
0.05819693073871091 1:0.042857143 2:0.057142857 3:0.17142857 4:0.014285714 5:0.057142857 6:0 7:0.028571429 8:0.071428571 9:0.085714286 10:0.014285714 11:0.042857143 12:0.042857143 13:0 14:0.042857143 15:0.057142857 16:0.071428571 17:0 18:0.071428571 19:0.1 20:0.028571429 
1 1:0.014285714 2:0.32857143 3:0.071428571 4:0.042857143 5:0.028571429 6:0.014285714 7:0 8:0.11428571 9:0.11428571 10:0.042857143 11:0.057142857 12:0.014285714 13:0 14:0.014285714 15:0 16:0.028571429 17:0.028571429 18:0.057142857 19:0.028571429 20:0 
0.525614197687818 1:0.071428571 2:0.15714286 3:0.042857143 4:0.042857143 5:0.014285714 6:0.014285714 7:0 8:0.071428571 9:0.1 10:0.028571429 11:0.028571429 12:0.1 13:0 14:0.071428571 15:0.028571429 16:0.057142857 17:0.057142857 18:0.028571429 19:0.057142857 20:0.028571429 
0.9352805757404508 1:0.1 2:0.15714286 3:0.071428571 4:0.071428571 5:0.057142857 6:0.014285714 7:0.014285714 8:0.085714286 9:0.1 10:0.014285714 11:0.1 12:0.028571429 13:0 14:0 15:0.071428571 16:0.042857143 17:0.014285714 18:0 19:0.014285714 20:0.042857143 
1 1:0.071428571 2:0.14285714 3:0.085714286 4:0.1 5:0.042857143 6:0 7:0.014285714 8:0.085714286 9:0.15714286 10:0.042857143 11:0.028571429 12:0.071428571 13:0.014285714 14:0 15:0.014285714 16:0.057142857 17:0.014285714 18:0 19:0.028571429 20:0.028571429 
1 1:0.042857143 2:0.057142857 3:0.085714286 4:0.028571429 5:0.042857143 6:0 7:0.042857143 8:0.071428571 9:0.11428571 10:0.014285714 11:0.071428571 12:0.1 13:0.014285714 14:0 15:0.057142857 16:0.085714286 17:0.057142857 18:0.028571429 19:0.085714286 20:0 
1 1:0.11428571 2:0.042857143 3:0.085714286 4:0.014285714 5:0 6:0 7:0.014285714 8:0.028571429 9:0.24285714 10:0.1 11:0.028571429 12:0.071428571 13:0 14:0 15:0.042857143 16:0.042857143 17:0.042857143 18:0.11428571 19:0 20:0.014285714 
1 1:0.057142857 2:0.11428571 3:0.014285714 4:0.014285714 5:0.071428571 6:0.028571429 7:0.014285714 8:0.028571429 9:0.15714286 10:0.1 11:0.071428571 12:0.071428571 13:0 14:0.028571429 15:0.057142857 16:0.028571429 17:0.042857143 18:0.014285714 19:0.014285714 20:0.071428571 
1 1:0.057142857 2:0.12857143 3:0.071428571 4:0.028571429 5:0 6:0 7:0 8:0.085714286 9:0.15714286 10:0.042857143 11:0.057142857 12:0.085714286 13:0 14:0.028571429 15:0.12857143 16:0.014285714 17:0.028571429 18:0.028571429 19:0 20:0.057142857 
0.1462050395763653 1:0.042857143 2:0.15714286 3:0.071428571 4:0.028571429 5:0.028571429 6:0 7:0 8:0.12857143 9:0.11428571 10:0 11:0.028571429 12:0.028571429 13:0 14:0.028571429 15:0.071428571 16:0.057142857 17:0.057142857 18:0.12857143 19:0.028571429 20:0 
0.1360573483313635 1:0.028571429 2:0.11428571 3:0.028571429 4:0.042857143 5:0.014285714 6:0 7:0.042857143 8:0.15714286 9:0.057142857 10:0.042857143 11:0.014285714 12:0.042857143 13:0.028571429 14:0.057142857 15:0.028571429 16:0.071428571 17:0.1 18:0.028571429 19:0.014285714 20:0.085714286 
0.3936146507078441 1:0.14285714 2:0.17142857 3:0.071428571 4:0.057142857 5:0.042857143 6:0 7:0 8:0.057142857 9:0.1 10:0.057142857 11:0.057142857 12:0.014285714 13:0 14:0.014285714 15:0.085714286 16:0.028571429 17:0.028571429 18:0.028571429 19:0.014285714 20:0.028571429 
0.1489241031468204 1:0.057142857 2:0.071428571 3:0.14285714 4:0.042857143 5:0.014285714 6:0 7:0.014285714 8:0.11428571 9:0.042857143 10:0 11:0.028571429 12:0.085714286 13:0.028571429 14:0.014285714 15:0.014285714 16:0.11428571 17:0.071428571 18:0.042857143 19:0.014285714 20:0.085714286 
0.4650852015389096 1:0.057142857 2:0.085714286 3:0.028571429 4:0.028571429 5:0 6:0.014285714 7:0.057142857 8:0.057142857 9:0.057142857 10:0.14285714 11:0.057142857 12:0.057142857 13:0 14:0.042857143 15:0.085714286 16:0.057142857 17:0.014285714 18:0.028571429 19:0.028571429 20:0.1 
1 1:0.032786885 2:0.049180328 3:0.06557377 4:0.049180328 5:0.016393443 6:0 7:0.016393443 8:0.032786885 9:0.06557377 10:0.016393443 11:0.098360656 12:0.081967213 13:0 14:0.032786885 15:0.098360656 16:0.21311475 17:0.081967213 18:0.016393443 19:0.016393443 20:0.016393443 
0.5517688096444758 1:0.11428571 2:0.057142857 3:0.042857143 4:0.028571429 5:0.014285714 6:0 7:0 8:0.057142857 9:0.17142857 10:0.014285714 11:0.085714286 12:0.1 13:0.042857143 14:0.042857143 15:0.071428571 16:0.014285714 17:0.042857143 18:0.042857143 19:0.028571429 20:0.028571429 
1 1:0.085714286 2:0.085714286 3:0.085714286 4:0.11428571 5:0.028571429 6:0.028571429 7:0 8:0.1 9:0.1 10:0.014285714 11:0.11428571 12:0.071428571 13:0.014285714 14:0 15:0.014285714 16:0.071428571 17:0.028571429 18:0.014285714 19:0.028571429 20:0 
0.2101463494271994 1:0.12857143 2:0.071428571 3:0.11428571 4:0.042857143 5:0.042857143 6:0.014285714 7:0.028571429 8:0.042857143 9:0.12857143 10:0.085714286 11:0.071428571 12:0.028571429 13:0 14:0 15:0.014285714 16:0.014285714 17:0.085714286 18:0.028571429 19:0.028571429 20:0.028571429 
0.2193236428472591 1:0.11428571 2:0.042857143 3:0.042857143 4:0.028571429 5:0.071428571 6:0 7:0.014285714 8:0.057142857 9:0.1 10:0.028571429 11:0.085714286 12:0.028571429 13:0.028571429 14:0.042857143 15:0 16:0.085714286 17:0.028571429 18:0.057142857 19:0.085714286 20:0.057142857 
0.7616421158887876 1:0.057142857 2:0.15714286 3:0.085714286 4:0.028571429 5:0.042857143 6:0 7:0.042857143 8:0.014285714 9:0.071428571 10:0.11428571 11:0.057142857 12:0.028571429 13:0.014285714 14:0.014285714 15:0.042857143 16:0.014285714 17:0.042857143 18:0.042857143 19:0.1 20:0.028571429 
0.0668264331092266 1:0.042857143 2:0.12857143 3:0.071428571 4:0.014285714 5:0 6:0.014285714 7:0.014285714 8:0.057142857 9:0.071428571 10:0.042857143 11:0.085714286 12:0.071428571 13:0 14:0.014285714 15:0.15714286 16:0.057142857 17:0.014285714 18:0.1 19:0 20:0.042857143 
0.1216302995241756 1:0.057142857 2:0.071428571 3:0.085714286 4:0.071428571 5:0.014285714 6:0.057142857 7:0.014285714 8:0.042857143 9:0.085714286 10:0.057142857 11:0.12857143 12:0.057142857 13:0.042857143 14:0.028571429 15:0.085714286 16:0.014285714 17:0.014285714 18:0.014285714 19:0.014285714 20:0.042857143 
0.7076364846812748 1:0 2:0.071428571 3:0.071428571 4:0.014285714 5:0.071428571 6:0.014285714 7:0.028571429 8:0.014285714 9:0.014285714 10:0.057142857 11:0.057142857 12:0.12857143 13:0.014285714 14:0.042857143 15:0.057142857 16:0.057142857 17:0.085714286 18:0.085714286 19:0.085714286 20:0.028571429 
1 1:0.042857143 2:0.057142857 3:0.014285714 4:0.014285714 5:0.042857143 6:0.028571429 7:0.014285714 8:0.057142857 9:0.12857143 10:0.071428571 11:0.085714286 12:0.085714286 13:0.042857143 14:0.028571429 15:0.15714286 16:0.028571429 17:0.014285714 18:0.028571429 19:0.028571429 20:0.028571429 
0.7119274868802968 1:0.057142857 2:0.11428571 3:0.028571429 4:0.014285714 5:0.028571429 6:0 7:0.057142857 8:0.028571429 9:0.11428571 10:0 11:0.028571429 12:0.085714286 13:0 14:0 15:0.014285714 16:0.14285714 17:0.057142857 18:0.085714286 19:0.1 20:0.042857143 
1 1:0.071428571 2:0.085714286 3:0.057142857 4:0 5:0.057142857 6:0 7:0 8:0.057142857 9:0.2 10:0.028571429 11:0.071428571 12:0.057142857 13:0 14:0 15:0.071428571 16:0.028571429 17:0.042857143 18:0.042857143 19:0.057142857 20:0.071428571 
0.1432559503384102 1:0.042857143 2:0.085714286 3:0.014285714 4:0.042857143 5:0.014285714 6:0.042857143 7:0.057142857 8:0.042857143 9:0.18571429 10:0.014285714 11:0.057142857 12:0.057142857 13:0.014285714 14:0.028571429 15:0.057142857 16:0.042857143 17:0.071428571 18:0.014285714 19:0.042857143 20:0.071428571 
0.1196356882395019 1:0.071428571 2:0.071428571 3:0.014285714 4:0.014285714 5:0.042857143 6:0.014285714 7:0.028571429 8:0.014285714 9:0.2 10:0.057142857 11:0.042857143 12:0.042857143 13:0.028571429 14:0.057142857 15:0.11428571 16:0 17:0.042857143 18:0.057142857 19:0 20:0.085714286 
0.04321512227940792 1:0.071428571 2:0.1 3:0.1 4:0.014285714 5:0.014285714 6:0 7:0.014285714 8:0.15714286 9:0.11428571 10:0.014285714 11:0.071428571 12:0.057142857 13:0.028571429 14:0.028571429 15:0.014285714 16:0.085714286 17:0.014285714 18:0.028571429 19:0.028571429 20:0.042857143 
0.7548807784280871 1:0.014285714 2:0.1 3:0.12857143 4:0.028571429 5:0.1 6:0 7:0.014285714 8:0.15714286 9:0.057142857 10:0.014285714 11:0.1 12:0.028571429 13:0.014285714 14:0.028571429 15:0.042857143 16:0.057142857 17:0.057142857 18:0 19:0.042857143 20:0.014285714 
0.3199296297687273 1:0.1 2:0.15714286 3:0.042857143 4:0.014285714 5:0.028571429 6:0 7:0.057142857 8:0.028571429 9:0.085714286 10:0.014285714 11:0.042857143 12:0.042857143 13:0 14:0.042857143 15:0.042857143 16:0.085714286 17:0.028571429 18:0.057142857 19:0.085714286 20:0.042857143 
0.1334184776974232 1:0.042857143 2:0.17142857 3:0.057142857 4:0.085714286 5:0.028571429 6:0 7:0.042857143 8:0.15714286 9:0.028571429 10:0.014285714 11:0.071428571 12:0.071428571 13:0.014285714 14:0.028571429 15:0.028571429 16:0.028571429 17:0.071428571 18:0.028571429 19:0.028571429 20:0 
1 1:0.085714286 2:0.11428571 3:0.014285714 4:0.071428571 5:0.014285714 6:0.071428571 7:0.028571429 8:0.028571429 9:0.042857143 10:0.042857143 11:0.028571429 12:0.028571429 13:0.028571429 14:0 15:0.18571429 16:0 17:0.12857143 18:0.071428571 19:0.014285714 20:0 
0.5736501153748821 1:0.071428571 2:0.071428571 3:0.14285714 4:0.014285714 5:0.028571429 6:0 7:0 8:0.085714286 9:0.028571429 10:0.057142857 11:0.028571429 12:0.028571429 13:0 14:0 15:0.085714286 16:0.071428571 17:0.014285714 18:0.085714286 19:0.14285714 20:0.042857143 
0.2475277422533452 1:0.085714286 2:0.14285714 3:0.042857143 4:0.042857143 5:0.014285714 6:0 7:0.042857143 8:0.028571429 9:0.1 10:0.028571429 11:0.028571429 12:0.085714286 13:0.042857143 14:0.014285714 15:0.11428571 16:0.042857143 17:0 18:0.057142857 19:0.028571429 20:0.057142857 
0.14618820227623 1:0.057142857 2:0.085714286 3:0.042857143 4:0.028571429 5:0 6:0.014285714 7:0.014285714 8:0.1 9:0.17142857 10:0.042857143 11:0.1 12:0.042857143 13:0.057142857 14:0 15:0.071428571 16:0.014285714 17:0.028571429 18:0.1 19:0.014285714 20:0.014285714 
1 1:0.085714286 2:0.057142857 3:0.057142857 4:0.014285714 5:0.014285714 6:0 7:0.028571429 8:0.042857143 9:0.057142857 10:0.085714286 11:0.071428571 12:0.11428571 13:0.028571429 14:0 15:0.11428571 16:0.11428571 17:0.071428571 18:0.028571429 19:0.014285714 20:0 
0.7944324292342149 1:0.042857143 2:0.11428571 3:0.1 4:0.014285714 5:0.042857143 6:0 7:0.028571429 8:0.042857143 9:0.071428571 10:0 11:0.14285714 12:0.028571429 13:0 14:0.028571429 15:0.014285714 16:0.12857143 17:0.028571429 18:0.057142857 19:0.028571429 20:0.085714286 
1 1:0.085714286 2:0.15714286 3:0.042857143 4:0.028571429 5:0.042857143 6:0.028571429 7:0.028571429 8:0.085714286 9:0.085714286 10:0.014285714 11:0.1 12:0.085714286 13:0 14:0 15:0.028571429 16:0.057142857 17:0.071428571 18:0.014285714 19:0.028571429 20:0.014285714 
1 1:0.085714286 2:0.2 3:0.057142857 4:0.057142857 5:0.028571429 6:0.014285714 7:0.028571429 8:0.12857143 9:0.12857143 10:0.028571429 11:0.028571429 12:0.1 13:0.014285714 14:0.014285714 15:0.014285714 16:0.014285714 17:0.014285714 18:0.014285714 19:0.014285714 20:0.014285714 
1 1:0.1 2:0.15714286 3:0.14285714 4:0.028571429 5:0.1 6:0 7:0.057142857 8:0.071428571 9:0.14285714 10:0.014285714 11:0.042857143 12:0.042857143 13:0.014285714 14:0.028571429 15:0.014285714 16:0 17:0 18:0.028571429 19:0.014285714 20:0 
0.7275764570410406 1:0.042857143 2:0.18571429 3:0.12857143 4:0.042857143 5:0.12857143 6:0.028571429 7:0.071428571 8:0.042857143 9:0.014285714 10:0.028571429 11:0.071428571 12:0.028571429 13:0.014285714 14:0.028571429 15:0.057142857 16:0.014285714 17:0.014285714 18:0.042857143 19:0.014285714 20:0 
0.1657935468999936 1:0.028571429 2:0.1 3:0.042857143 4:0.042857143 5:0.057142857 6:0.014285714 7:0.014285714 8:0.057142857 9:0.057142857 10:0.042857143 11:0.057142857 12:0.042857143 13:0 14:0.057142857 15:0 16:0.18571429 17:0.057142857 18:0.014285714 19:0.071428571 20:0.057142857 
0.6136647627787513 1:0.11428571 2:0.085714286 3:0.042857143 4:0.028571429 5:0.042857143 6:0 7:0.028571429 8:0.057142857 9:0.18571429 10:0.014285714 11:0.071428571 12:0.028571429 13:0.014285714 14:0.014285714 15:0.028571429 16:0.071428571 17:0.014285714 18:0.071428571 19:0.042857143 20:0.042857143 
1 1:0.071428571 2:0.085714286 3:0.071428571 4:0.028571429 5:0.028571429 6:0 7:0.014285714 8:0.057142857 9:0.21428571 10:0.042857143 11:0.042857143 12:0.12857143 13:0 14:0 15:0.057142857 16:0.014285714 17:0.057142857 18:0.014285714 19:0.014285714 20:0.057142857 
0.7624990147151822 1:0.057142857 2:0.2 3:0.014285714 4:0.042857143 5:0.042857143 6:0 7:0 8:0 9:0.12857143 10:0.042857143 11:0.057142857 12:0.042857143 13:0.014285714 14:0.042857143 15:0.071428571 16:0 17:0.042857143 18:0.14285714 19:0.042857143 20:0.014285714 
1 1:0.14285714 2:0.1 3:0.042857143 4:0.014285714 5:0.014285714 6:0 7:0 8:0.057142857 9:0.1 10:0.057142857 11:0.15714286 12:0 13:0 14:0.042857143 15:0.071428571 16:0 17:0.057142857 18:0.057142857 19:0.014285714 20:0.071428571 
0.3883998811914964 1:0.057142857 2:0.071428571 3:0.11428571 4:0.014285714 5:0.028571429 6:0.014285714 7:0.028571429 8:0.1 9:0.18571429 10:0.057142857 11:0.071428571 12:0.057142857 13:0 14:0 15:0.042857143 16:0.042857143 17:0 18:0.028571429 19:0.028571429 20:0.057142857 
0.52255165783612 1:0.12857143 2:0.14285714 3:0.057142857 4:0.014285714 5:0 6:0 7:0.028571429 8:0.17142857 9:0.1 10:0.014285714 11:0.042857143 12:0.028571429 13:0.014285714 14:0 15:0.085714286 16:0.014285714 17:0.042857143 18:0.057142857 19:0 20:0.057142857 
0.6046234600843295 1:0.042857143 2:0.057142857 3:0.1 4:0.014285714 5:0.11428571 6:0 7:0.028571429 8:0.042857143 9:0.071428571 10:0.057142857 11:0.071428571 12:0.042857143 13:0.014285714 14:0.042857143 15:0 16:0.11428571 17:0.042857143 18:0.014285714 19:0.085714286 20:0.042857143 
0.2439783459350994 1:0.028571429 2:0.18571429 3:0.071428571 4:0.014285714 5:0.042857143 6:0.014285714 7:0.057142857 8:0.042857143 9:0.11428571 10:0.042857143 11:0.042857143 12:0.014285714 13:0.014285714 14:0.057142857 15:0.1 16:0.028571429 17:0.028571429 18:0.057142857 19:0.014285714 20:0.028571429 
1 1:0.042857143 2:0.17142857 3:0.071428571 4:0.014285714 5:0.11428571 6:0.028571429 7:0.028571429 8:0.042857143 9:0.1 10:0.042857143 11:0.057142857 12:0 13:0.042857143 14:0 15:0.028571429 16:0.1 17:0.014285714 18:0.057142857 19:0 20:0.042857143 
0.4555753475227542 1:0.057142857 2:0.042857143 3:0.057142857 4:0.014285714 5:0.057142857 6:0 7:0.014285714 8:0.14285714 9:0.071428571 10:0.042857143 11:0.071428571 12:0 13:0.042857143 14:0.071428571 15:0.1 16:0.028571429 17:0.014285714 18:0.057142857 19:0.028571429 20:0.085714286 
0.5066882940233038 1:0.042857143 2:0.14285714 3:0.057142857 4:0.014285714 5:0.042857143 6:0.028571429 7:0.014285714 8:0.085714286 9:0.071428571 10:0.14285714 11:0.085714286 12:0.057142857 13:0 14:0 15:0.071428571 16:0.014285714 17:0.014285714 18:0.057142857 19:0.014285714 20:0.042857143 
1 1:0.014285714 2:0.014285714 3:0.042857143 4:0.1 5:0 6:0 7:0 8:0.1 9:0.014285714 10:0.028571429 11:0.014285714 12:0.071428571 13:0 14:0.12857143 15:0.014285714 16:0.085714286 17:0.071428571 18:0.11428571 19:0.12857143 20:0.057142857 
0.3098173519452173 1:0.042857143 2:0.071428571 3:0.11428571 4:0.014285714 5:0.057142857 6:0 7:0.014285714 8:0.014285714 9:0.028571429 10:0.014285714 11:0.085714286 12:0 13:0.014285714 14:0.1 15:0.057142857 16:0.071428571 17:0.11428571 18:0.1 19:0.071428571 20:0.014285714 
1 1:0.014285714 2:0.057142857 3:0.071428571 4:0.014285714 5:0.042857143 6:0.014285714 7:0.042857143 8:0.042857143 9:0.22857143 10:0.028571429 11:0.028571429 12:0.085714286 13:0.014285714 14:0.042857143 15:0.042857143 16:0.057142857 17:0.057142857 18:0.042857143 19:0.028571429 20:0.042857143 
0.148649604714039 1:0.057142857 2:0.12857143 3:0.11428571 4:0.014285714 5:0.057142857 6:0.014285714 7:0.028571429 8:0.12857143 9:0.014285714 10:0.057142857 11:0.057142857 12:0.028571429 13:0.028571429 14:0 15:0.014285714 16:0.014285714 17:0.028571429 18:0.085714286 19:0.11428571 20:0.014285714 
1 1:0.1 2:0.12857143 3:0.057142857 4:0 5:0.15714286 6:0.042857143 7:0.014285714 8:0.028571429 9:0.11428571 10:0.071428571 11:0.028571429 12:0.071428571 13:0.014285714 14:0 15:0.057142857 16:0 17:0.028571429 18:0 19:0.028571429 20:0.057142857 
1 1:0.1 2:0.057142857 3:0.042857143 4:0.042857143 5:0.028571429 6:0.028571429 7:0 8:0.085714286 9:0.21428571 10:0.028571429 11:0.071428571 12:0.071428571 13:0.028571429 14:0 15:0.042857143 16:0.042857143 17:0.014285714 18:0.042857143 19:0.014285714 20:0.042857143 
0.8565517294608639 1:0.1 2:0.1 3:0.085714286 4:0.028571429 5:0.042857143 6:0.028571429 7:0.028571429 8:0.014285714 9:0.12857143 10:0.042857143 11:0.057142857 12:0.071428571 13:0 14:0.014285714 15:0 16:0.057142857 17:0.057142857 18:0.028571429 19:0.071428571 20:0.042857143 
0.8171463014117692 1:0.18571429 2:0.071428571 3:0.071428571 4:0.028571429 5:0 6:0.014285714 7:0 8:0.057142857 9:0.14285714 10:0.057142857 11:0.028571429 12:0.071428571 13:0.014285714 14:0.014285714 15:0.042857143 16:0.085714286 17:0 18:0.085714286 19:0.014285714 20:0.014285714 
0.3418223089322693 1:0.12857143 2:0.12857143 3:0.028571429 4:0.014285714 5:0.014285714 6:0.014285714 7:0.014285714 8:0.042857143 9:0.15714286 10:0.057142857 11:0.1 12:0.014285714 13:0 14:0 15:0.071428571 16:0.028571429 17:0.014285714 18:0.14285714 19:0 20:0.028571429 
0.5350342350756366 1:0.11428571 2:0.11428571 3:0.071428571 4:0.028571429 5:0.014285714 6:0.057142857 7:0.014285714 8:0.071428571 9:0.14285714 10:0.057142857 11:0.057142857 12:0.071428571 13:0.014285714 14:0.028571429 15:0.071428571 16:0 17:0.014285714 18:0 19:0.028571429 20:0.028571429 
0.8333253664473259 1:0.057142857 2:0.071428571 3:0.042857143 4:0.028571429 5:0.071428571 6:0.028571429 7:0.028571429 8:0.028571429 9:0.085714286 10:0.014285714 11:0.14285714 12:0 13:0 14:0.057142857 15:0.1 16:0.042857143 17:0.014285714 18:0.11428571 19:0.042857143 20:0.028571429 
0.9480361713754217 1:0.1 2:0.1 3:0 4:0.028571429 5:0.028571429 6:0 7:0.014285714 8:0.1 9:0.2 10:0.071428571 11:0 12:0.057142857 13:0.028571429 14:0.042857143 15:0.042857143 16:0.042857143 17:0.014285714 18:0.028571429 19:0.042857143 20:0.057142857 
1 1:0.071428571 2:0.11428571 3:0.057142857 4:0.028571429 5:0.014285714 6:0 7:0.028571429 8:0.11428571 9:0.11428571 10:0.071428571 11:0.014285714 12:0.042857143 13:0 14:0.014285714 15:0.014285714 16:0.057142857 17:0.11428571 18:0.014285714 19:0.1 20:0.014285714 
1 1:0.028571429 2:0.042857143 3:0.1 4:0.071428571 5:0 6:0 7:0 8:0.1 9:0.25714286 10:0 11:0.014285714 12:0.042857143 13:0.014285714 14:0 15:0.042857143 16:0.11428571 17:0 18:0.085714286 19:0.028571429 20:0.057142857 
0.6236269231935958 1:0.12857143 2:0.042857143 3:0.057142857 4:0.042857143 5:0.057142857 6:0 7:0.014285714 8:0.071428571 9:0.17142857 10:0.085714286 11:0.014285714 12:0.071428571 13:0 14:0.014285714 15:0.014285714 16:0.085714286 17:0.028571429 18:0.028571429 19:0.042857143 20:0.028571429 
0.6512134546159126 1:0.1 2:0.2 3:0.085714286 4:0.014285714 5:0.085714286 6:0.028571429 7:0.057142857 8:0.057142857 9:0.085714286 10:0 11:0.071428571 12:0.014285714 13:0 14:0 15:0.028571429 16:0.057142857 17:0.014285714 18:0.057142857 19:0.014285714 20:0.028571429 
1 1:0.085714286 2:0.15714286 3:0.057142857 4:0.014285714 5:0.057142857 6:0.028571429 7:0.028571429 8:0.042857143 9:0.15714286 10:0.057142857 11:0.028571429 12:0.085714286 13:0 14:0.014285714 15:0.057142857 16:0 17:0.042857143 18:0.042857143 19:0.042857143 20:0 
1 1:0.071428571 2:0.057142857 3:0.057142857 4:0.014285714 5:0.014285714 6:0 7:0.042857143 8:0.042857143 9:0.21428571 10:0.028571429 11:0.085714286 12:0.057142857 13:0.014285714 14:0 15:0.042857143 16:0.057142857 17:0.028571429 18:0.057142857 19:0.071428571 20:0.042857143 
0.423096629551606 1:0.057142857 2:0.12857143 3:0.12857143 4:0.028571429 5:0.028571429 6:0.028571429 7:0.057142857 8:0.014285714 9:0.028571429 10:0.042857143 11:0.1 12:0.071428571 13:0.028571429 14:0.028571429 15:0.028571429 16:0.085714286 17:0.042857143 18:0.014285714 19:0.042857143 20:0.014285714 
1 1:0.014285714 2:0.18571429 3:0.014285714 4:0.014285714 5:0.057142857 6:0 7:0.014285714 8:0.028571429 9:0.2 10:0.071428571 11:0.071428571 12:0.057142857 13:0.014285714 14:0.014285714 15:0.028571429 16:0.028571429 17:0.057142857 18:0.042857143 19:0.028571429 20:0.057142857 
1 1:0.085714286 2:0.14285714 3:0.028571429 4:0.014285714 5:0.014285714 6:0 7:0.014285714 8:0.071428571 9:0.14285714 10:0.028571429 11:0.11428571 12:0.085714286 13:0 14:0 15:0.085714286 16:0 17:0.042857143 18:0.042857143 19:0.028571429 20:0.057142857 
0.7200037921628242 1:0.014285714 2:0.18571429 3:0.1 4:0.042857143 5:0.028571429 6:0.014285714 7:0.028571429 8:0.042857143 9:0.071428571 10:0.014285714 11:0.057142857 12:0.071428571 13:0 14:0.028571429 15:0 16:0.1 17:0.085714286 18:0.042857143 19:0.028571429 20:0.042857143 
-0.2917183438080891 1:0 2:0.21428571 3:0.10714286 4:0 5:0.071428571 6:0 7:0 8:0 9:0.10714286 10:0.14285714 11:0.10714286 12:0.035714286 13:0 14:0 15:0 16:0.071428571 17:0.071428571 18:0.071428571 19:0 20:0 
-0.05673071762165787 1:0 2:0.17241379 3:0 4:0.034482759 5:0 6:0.034482759 7:0.034482759 8:0.068965517 9:0.24137931 10:0 11:0.068965517 12:0.034482759 13:0 14:0.068965517 15:0.034482759 16:0.068965517 17:0 18:0 19:0.068965517 20:0.068965517 
-0.3316402495419504 1:0 2:0.11111111 3:0.11111111 4:0.037037037 5:0 6:0 7:0 8:0 9:0.25925926 10:0.037037037 11:0 12:0.074074074 13:0.037037037 14:0.037037037 15:0.037037037 16:0.037037037 17:0.11111111 18:0 19:0.037037037 20:0.074074074 
-0.2914765619232511 1:0.075 2:0.2 3:0.075 4:0 5:0.025 6:0.075 7:0 8:0.075 9:0.175 10:0 11:0.05 12:0 13:0 14:0 15:0.075 16:0.025 17:0.025 18:0.025 19:0.075 20:0.025 
-0.1307600872856042 1:0.125 2:0.083333333 3:0.083333333 4:0 5:0.25 6:0 7:0 8:0 9:0.083333333 10:0 11:0.125 12:0 13:0 14:0.041666667 15:0.041666667 16:0.041666667 17:0 18:0 19:0.041666667 20:0.083333333 
-0.5450326508987793 1:0.032258065 2:0.19354839 3:0.064516129 4:0 5:0.032258065 6:0.032258065 7:0 8:0.096774194 9:0.19354839 10:0.064516129 11:0.12903226 12:0 13:0 14:0.064516129 15:0 16:0 17:0 18:0.064516129 19:0 20:0.032258065 
-0.7874994790651645 1:0.048780488 2:0.024390244 3:0.048780488 4:0.097560976 5:0 6:0 7:0 8:0.073170732 9:0.2195122 10:0.024390244 11:0.073170732 12:0.14634146 13:0.024390244 14:0 15:0.073170732 16:0.024390244 17:0 18:0.048780488 19:0.073170732 20:0 
-1 1:0.078947368 2:0.078947368 3:0.078947368 4:0.026315789 5:0.026315789 6:0 7:0.026315789 8:0.13157895 9:0.10526316 10:0.026315789 11:0.10526316 12:0.026315789 13:0.026315789 14:0.052631579 15:0.052631579 16:0.078947368 17:0.026315789 18:0.052631579 19:0 20:0 
-0.009545792691481803 1:0.14285714 2:0.14285714 3:0 4:0 5:0.10714286 6:0 7:0 8:0.035714286 9:0.28571429 10:0.10714286 11:0 12:0 13:0.035714286 14:0 15:0.035714286 16:0.071428571 17:0 18:0 19:0 20:0.035714286 
-0.5934669425480502 1:0.055555556 2:0.083333333 3:0.055555556 4:0.027777778 5:0.055555556 6:0 7:0 8:0 9:0.16666667 10:0.16666667 11:0.083333333 12:0.055555556 13:0.055555556 14:0 15:0.027777778 16:0.055555556 17:0.055555556 18:0.055555556 19:0 20:0 
-1 1:0.076923077 2:0.11538462 3:0.076923077 4:0.038461538 5:0.038461538 6:0 7:0.038461538 8:0.11538462 9:0.19230769 10:0.076923077 11:0.038461538 12:0 13:0.038461538 14:0.038461538 15:0.038461538 16:0 17:0.076923077 18:0 19:0 20:0 
-0.4775585638982507 1:0.066666667 2:0.033333333 3:0.066666667 4:0.033333333 5:0.066666667 6:0 7:0 8:0.16666667 9:0.26666667 10:0.033333333 11:0.033333333 12:0 13:0.033333333 14:0.033333333 15:0.033333333 16:0 17:0 18:0.066666667 19:0.066666667 20:0 
-1 1:0.10714286 2:0.10714286 3:0.10714286 4:0.035714286 5:0 6:0 7:0.035714286 8:0.035714286 9:0.21428571 10:0.035714286 11:0 12:0.035714286 13:0 14:0 15:0.035714286 16:0.071428571 17:0 18:0.035714286 19:0.10714286 20:0.035714286 
-1 1:0.1 2:0.1 3:0.075 4:0.025 5:0.025 6:0 7:0 8:0.1 9:0.175 10:0 11:0.025 12:0.075 13:0.025 14:0 15:0.075 16:0.1 17:0.05 18:0 19:0.025 20:0.025 
-1 1:0 2:0.075 3:0.05 4:0.025 5:0.05 6:0 7:0.025 8:0.075 9:0.075 10:0.125 11:0.05 12:0.125 13:0.05 14:0.025 15:0.15 16:0.025 17:0.05 18:0.025 19:0 20:0 
-0.8048799260431777 1:0.04 2:0.16 3:0.04 4:0.04 5:0.04 6:0 7:0 8:0 9:0 10:0 11:0 12:0.08 13:0.04 14:0 15:0 16:0.16 17:0.12 18:0.08 19:0.16 20:0.04 
-0.0658885625859093 1:0.058823529 2:0.058823529 3:0.11764706 4:0 5:0.058823529 6:0 7:0 8:0 9:0.17647059 10:0 11:0.11764706 12:0.11764706 13:0 14:0 15:0 16:0.11764706 17:0 18:0.058823529 19:0.058823529 20:0.058823529 
-0.5570969358493352 1:0.10714286 2:0.10714286 3:0.071428571 4:0 5:0 6:0 7:0.035714286 8:0.071428571 9:0.25 10:0.035714286 11:0.035714286 12:0.071428571 13:0 14:0 15:0 16:0.035714286 17:0.071428571 18:0.035714286 19:0.071428571 20:0 
-0.08175603617186687 1:0.13793103 2:0.034482759 3:0.068965517 4:0.068965517 5:0.068965517 6:0 7:0 8:0.034482759 9:0.17241379 10:0 11:0.068965517 12:0.13793103 13:0 14:0 15:0 16:0.13793103 17:0 18:0.034482759 19:0.034482759 20:0 
-1 1:0.14285714 2:0.085714286 3:0.057142857 4:0.11428571 5:0.028571429 6:0 7:0 8:0.057142857 9:0.11428571 10:0.057142857 11:0.057142857 12:0.028571429 13:0 14:0.028571429 15:0 16:0.11428571 17:0 18:0.028571429 19:0.085714286 20:0 
-0.5059900313559402 1:0.022222222 2:0.15555556 3:0 4:0.022222222 5:0.044444444 6:0 7:0 8:0.088888889 9:0.2 10:0.044444444 11:0.044444444 12:0.088888889 13:0 14:0 15:0.11111111 16:0 17:0.066666667 18:0 19:0.066666667 20:0.044444444 
-1 1:0.054054054 2:0.10810811 3:0.054054054 4:0 5:0.027027027 6:0.054054054 7:0 8:0.18918919 9:0.13513514 10:0.054054054 11:0.027027027 12:0.10810811 13:0 14:0 15:0.081081081 16:0.027027027 17:0.027027027 18:0.027027027 19:0.027027027 20:0 
-1 1:0.074074074 2:0.14814815 3:0.037037037 4:0 5:0.037037037 6:0 7:0.074074074 8:0.037037037 9:0.11111111 10:0.037037037 11:0.074074074 12:0.11111111 13:0.037037037 14:0.037037037 15:0 16:0.074074074 17:0.037037037 18:0.037037037 19:0.037037037 20:0 
-0.5040102986197106 1:0.13793103 2:0.13793103 3:0.068965517 4:0.034482759 5:0.068965517 6:0 7:0 8:0.034482759 9:0.17241379 10:0.034482759 11:0.10344828 12:0.034482759 13:0 14:0 15:0 16:0.068965517 17:0 18:0 19:0 20:0.10344828 
-0.008897062333547147 1:0 2:0.17857143 3:0 4:0 5:0 6:0 7:0.071428571 8:0.17857143 9:0.21428571 10:0.071428571 11:0.035714286 12:0.071428571 13:0 14:0 15:0.035714286 16:0.035714286 17:0 18:0 19:0.071428571 20:0.035714286 
-0.7717644800987334 1:0.074074074 2:0.11111111 3:0.14814815 4:0.037037037 5:0.037037037 6:0 7:0 8:0.037037037 9:0.18518519 10:0.037037037 11:0.074074074 12:0.037037037 13:0 14:0 15:0.074074074 16:0.074074074 17:0 18:0 19:0 20:0.074074074 
-0.325529024097705 1:0 2:0.21428571 3:0.071428571 4:0 5:0 6:0 7:0.14285714 8:0 9:0.14285714 10:0.071428571 11:0 12:0.071428571 13:0 14:0 15:0 16:0.071428571 17:0.071428571 18:0.14285714 19:0 20:0 
-0.2849873567688446 1:0.068965517 2:0.034482759 3:0.034482759 4:0.068965517 5:0.034482759 6:0.034482759 7:0 8:0.10344828 9:0.31034483 10:0.034482759 11:0.068965517 12:0.068965517 13:0 14:0.034482759 15:0 16:0.068965517 17:0 18:0 19:0 20:0.034482759 
-0.3985260461024962 1:0.09375 2:0.09375 3:0.09375 4:0.03125 5:0 6:0 7:0 8:0.03125 9:0.09375 10:0.0625 11:0.15625 12:0.0625 13:0.0625 14:0 15:0.0625 16:0.03125 17:0 18:0.03125 19:0.09375 20:0 
-1 1:0.05 2:0.175 3:0.075 4:0.025 5:0 6:0 7:0.05 8:0.075 9:0.125 10:0.1 11:0.075 12:0.05 13:0 14:0.05 15:0.025 16:0.025 17:0.05 18:0 19:0.025 20:0.025 
-0.9686021238064011 1:0.032258065 2:0.064516129 3:0.064516129 4:0 5:0.096774194 6:0 7:0.032258065 8:0.032258065 9:0.16129032 10:0.064516129 11:0.16129032 12:0.032258065 13:0 14:0 15:0 16:0.064516129 17:0 18:0.096774194 19:0.032258065 20:0.064516129 
-0.5768539655406772 1:0.225 2:0.1 3:0.125 4:0 5:0.1 6:0.025 7:0 8:0.1 9:0.025 10:0.025 11:0.05 12:0.05 13:0 14:0 15:0.025 16:0.1 17:0.05 18:0 19:0 20:0 
-0.5388149104708122 1:0.034482759 2:0.20689655 3:0.068965517 4:0.068965517 5:0 6:0 7:0.034482759 8:0.034482759 9:0.17241379 10:0.034482759 11:0.068965517 12:0.034482759 13:0 14:0 15:0.068965517 16:0.068965517 17:0.034482759 18:0.034482759 19:0 20:0.034482759 
-0.6429594955327633 1:0 2:0.14285714 3:0.047619048 4:0 5:0.047619048 6:0 7:0.023809524 8:0.023809524 9:0.21428571 10:0.071428571 11:0.071428571 12:0.095238095 13:0.023809524 14:0 15:0.023809524 16:0.023809524 17:0.071428571 18:0.047619048 19:0.047619048 20:0.023809524 
-0.5212129684349669 1:0.18181818 2:0.03030303 3:0.090909091 4:0.060606061 5:0.060606061 6:0 7:0 8:0.060606061 9:0.090909091 10:0 11:0.090909091 12:0.090909091 13:0.090909091 14:0.03030303 15:0 16:0.060606061 17:0 18:0 19:0.03030303 20:0.03030303 
-1 1:0.11538462 2:0.11538462 3:0 4:0.076923077 5:0.076923077 6:0.038461538 7:0.038461538 8:0.038461538 9:0.15384615 10:0.038461538 11:0 12:0.076923077 13:0 14:0 15:0.038461538 16:0.038461538 17:0.076923077 18:0.076923077 19:0 20:0 
-1 1:0.085106383 2:0.021276596 3:0.10638298 4:0 5:0.042553191 6:0 7:0.063829787 8:0.021276596 9:0.063829787 10:0.085106383 11:0.063829787 12:0.14893617 13:0 14:0.021276596 15:0.021276596 16:0.063829787 17:0.042553191 18:0.021276596 19:0.10638298 20:0.021276596 
-0.4337425315392023 1:0 2:0.16666667 3:0.125 4:0 5:0.041666667 6:0 7:0 8:0 9:0.041666667 10:0.125 11:0.125 12:0.083333333 13:0.041666667 14:0 15:0.083333333 16:0.041666667 17:0 18:0 19:0.125 20:0 
-1 1:0.12903226 2:0.12903226 3:0.032258065 4:0 5:0.064516129 6:0.032258065 7:0 8:0.064516129 9:0.096774194 10:0.064516129 11:0.064516129 12:0.032258065 13:0.064516129 14:0 15:0.064516129 16:0 17:0 18:0.032258065 19:0.032258065 20:0.096774194 
-1 1:0.083333333 2:0.10416667 3:0.020833333 4:0.020833333 5:0.041666667 6:0 7:0.020833333 8:0.10416667 9:0.041666667 10:0.0625 11:0.10416667 12:0.020833333 13:0.020833333 14:0.041666667 15:0.10416667 16:0.041666667 17:0.020833333 18:0.0625 19:0.020833333 20:0.0625 
-0.8372727008293257 1:0.11363636 2:0.045454545 3:0.045454545 4:0 5:0.045454545 6:0 7:0.045454545 8:0.090909091 9:0.18181818 10:0.045454545 11:0.13636364 12:0.045454545 13:0.022727273 14:0.022727273 15:0.045454545 16:0.045454545 17:0 18:0.022727273 19:0.045454545 20:0 
-1 1:0.095238095 2:0.11111111 3:0.031746032 4:0.031746032 5:0.031746032 6:0 7:0 8:0.12698413 9:0.11111111 10:0.047619048 11:0.063492063 12:0.047619048 13:0 14:0 15:0.14285714 16:0.031746032 17:0.015873016 18:0.015873016 19:0.031746032 20:0.063492063 
-1 1:0.08 2:0.12 3:0.08 4:0 5:0.04 6:0.02 7:0 8:0.12 9:0.1 10:0.02 11:0.04 12:0.14 13:0.04 14:0 15:0.06 16:0 17:0.1 18:0 19:0.04 20:0 
-0.9491438151933957 1:0.038461538 2:0.19230769 3:0.076923077 4:0 5:0.038461538 6:0 7:0 8:0.076923077 9:0.11538462 10:0 11:0.076923077 12:0.11538462 13:0 14:0 15:0 16:0.076923077 17:0.038461538 18:0.038461538 19:0.076923077 20:0.038461538 
-1 1:0.095238095 2:0.095238095 3:0.047619048 4:0.095238095 5:0.047619048 6:0 7:0 8:0.095238095 9:0.16666667 10:0 11:0.047619048 12:0.047619048 13:0.023809524 14:0 15:0.047619048 16:0.047619048 17:0.023809524 18:0.047619048 19:0.071428571 20:0 
-1 1:0.10869565 2:0.10869565 3:0.065217391 4:0.02173913 5:0.02173913 6:0 7:0.02173913 8:0.043478261 9:0.15217391 10:0.043478261 11:0.086956522 12:0.065217391 13:0.02173913 14:0 15:0.043478261 16:0.043478261 17:0 18:0.02173913 19:0.065217391 20:0.065217391 
-0.5536440842742797 1:0 2:0.027777778 3:0.11111111 4:0.027777778 5:0.11111111 6:0 7:0.027777778 8:0 9:0.16666667 10:0.027777778 11:0.083333333 12:0.11111111 13:0.027777778 14:0 15:0.055555556 16:0.027777778 17:0.027777778 18:0.083333333 19:0.083333333 20:0 
-0.7772630844861494 1:0.14634146 2:0.12195122 3:0.024390244 4:0.048780488 5:0.024390244 6:0 7:0.024390244 8:0.048780488 9:0.097560976 10:0.024390244 11:0.14634146 12:0.097560976 13:0 14:0 15:0.024390244 16:0.097560976 17:0.024390244 18:0.024390244 19:0 20:0.024390244 
-1 1:0 2:0.14285714 3:0.023809524 4:0.071428571 5:0.047619048 6:0.023809524 7:0 8:0.047619048 9:0.19047619 10:0.047619048 11:0.023809524 12:0.095238095 13:0 14:0 15:0.071428571 16:0.071428571 17:0 18:0.095238095 19:0 20:0.047619048 
-0.04142172648669337 1:0.035714286 2:0.17857143 3:0.071428571 4:0 5:0.071428571 6:0 7:0 8:0 9:0.21428571 10:0.035714286 11:0.071428571 12:0.10714286 13:0.035714286 14:0.035714286 15:0.071428571 16:0 17:0 18:0.035714286 19:0 20:0.035714286 
-0.7690726465124652 1:0.13333333 2:0.23333333 3:0.066666667 4:0 5:0 6:0 7:0.033333333 8:0.033333333 9:0.033333333 10:0 11:0.13333333 12:0 13:0.033333333 14:0.033333333 15:0.033333333 16:0.066666667 17:0 18:0.066666667 19:0.066666667 20:0.033333333 
-0.3146623573012281 1:0.045454545 2:0.18181818 3:0.090909091 4:0.045454545 5:0.18181818 6:0 7:0.045454545 8:0 9:0.045454545 10:0.045454545 11:0.18181818 12:0 13:0.045454545 14:0 15:0 16:0.045454545 17:0 18:0 19:0 20:0.045454545 
-0.08165420998559997 1:0.1627907 2:0.13953488 3:0.023255814 4:0 5:0.023255814 6:0.046511628 7:0 8:0.023255814 9:0.18604651 10:0.069767442 11:0.093023256 12:0.069767442 13:0 14:0 15:0.069767442 16:0.023255814 17:0.069767442 18:0 19:0 20:0 
-1 1:0 2:0.16666667 3:0.125 4:0 5:0.125 6:0 7:0.083333333 8:0.041666667 9:0.083333333 10:0.041666667 11:0.041666667 12:0.041666667 13:0 14:0 15:0.083333333 16:0.041666667 17:0 18:0 19:0.083333333 20:0.041666667 
-0.4751645925388643 1:0.12903226 2:0.096774194 3:0.032258065 4:0.096774194 5:0.032258065 6:0 7:0.032258065 8:0.064516129 9:0.25806452 10:0.032258065 11:0.032258065 12:0.032258065 13:0 14:0.032258065 15:0.032258065 16:0.032258065 17:0.032258065 18:0 19:0 20:0.032258065 
-0.6453906921628815 1:0.034482759 2:0.20689655 3:0.034482759 4:0 5:0.034482759 6:0.10344828 7:0 8:0.034482759 9:0.13793103 10:0.10344828 11:0.068965517 12:0.068965517 13:0 14:0 15:0.034482759 16:0.034482759 17:0.068965517 18:0.034482759 19:0 20:0 
-0.2636253655446709 1:0.10344828 2:0.31034483 3:0 4:0 5:0.068965517 6:0.034482759 7:0 8:0.068965517 9:0.13793103 10:0.068965517 11:0.034482759 12:0.068965517 13:0 14:0 15:0.068965517 16:0 17:0 18:0 19:0 20:0.034482759 
-0.4906449677433671 1:0.15384615 2:0.11538462 3:0.076923077 4:0 5:0.038461538 6:0 7:0.038461538 8:0.11538462 9:0.19230769 10:0.038461538 11:0.076923077 12:0 13:0 14:0 15:0 16:0.076923077 17:0.038461538 18:0.038461538 19:0 20:0 
-0.1741834105155647 1:0.1 2:0.1 3:0.066666667 4:0.033333333 5:0 6:0.033333333 7:0 8:0 9:0.2 10:0.033333333 11:0.033333333 12:0.1 13:0 14:0.033333333 15:0.033333333 16:0.033333333 17:0.033333333 18:0.033333333 19:0.13333333 20:0 
-0.8261316091555226 1:0.060606061 2:0.12121212 3:0.03030303 4:0 5:0.090909091 6:0 7:0 8:0.060606061 9:0.15151515 10:0.060606061 11:0.060606061 12:0.12121212 13:0 14:0 15:0.090909091 16:0.060606061 17:0.060606061 18:0.03030303 19:0 20:0 
-0.1132036053865779 1:0.11538462 2:0.11538462 3:0 4:0 5:0.076923077 6:0 7:0 8:0.076923077 9:0.30769231 10:0.038461538 11:0.076923077 12:0 13:0 14:0 15:0.038461538 16:0.038461538 17:0.038461538 18:0.038461538 19:0 20:0.038461538 
-0.6359237305864635 1:0 2:0.11111111 3:0.14814815 4:0 5:0.074074074 6:0 7:0.037037037 8:0.074074074 9:0.14814815 10:0 11:0.14814815 12:0.074074074 13:0 14:0 15:0 16:0.074074074 17:0.074074074 18:0 19:0 20:0.037037037 
-0.3163560524658362 1:0.20689655 2:0.13793103 3:0.10344828 4:0 5:0 6:0.034482759 7:0.034482759 8:0 9:0.068965517 10:0.068965517 11:0.068965517 12:0.13793103 13:0 14:0.034482759 15:0 16:0.034482759 17:0 18:0.034482759 19:0.034482759 20:0 
-0.577133638209088 1:0.037037037 2:0.14814815 3:0 4:0.037037037 5:0.14814815 6:0.074074074 7:0 8:0.11111111 9:0.11111111 10:0.037037037 11:0.074074074 12:0 13:0 14:0.037037037 15:0 16:0.074074074 17:0 18:0 19:0.074074074 20:0.037037037 
-1 1:0.083333333 2:0.14583333 3:0 4:0.020833333 5:0.020833333 6:0.020833333 7:0.020833333 8:0.083333333 9:0.16666667 10:0.083333333 11:0.0625 12:0.083333333 13:0 14:0.020833333 15:0.14583333 16:0 17:0.020833333 18:0 19:0 20:0.020833333 
-1 1:0.1 2:0.1 3:0.066666667 4:0 5:0.033333333 6:0 7:0.033333333 8:0.033333333 9:0.066666667 10:0.066666667 11:0.16666667 12:0 13:0 14:0 15:0.1 16:0.033333333 17:0.033333333 18:0.066666667 19:0.066666667 20:0.033333333 
-0.487485668954151 1:0.032258065 2:0.096774194 3:0.096774194 4:0.16129032 5:0 6:0 7:0 8:0.032258065 9:0.12903226 10:0 11:0.16129032 12:0.064516129 13:0 14:0 15:0 16:0.096774194 17:0 18:0.032258065 19:0.064516129 20:0.032258065 
-1 1:0.034482759 2:0.068965517 3:0 4:0 5:0.10344828 6:0 7:0.034482759 8:0.068965517 9:0.068965517 10:0.034482759 11:0.13793103 12:0.068965517 13:0.034482759 14:0 15:0.068965517 16:0 17:0.10344828 18:0.034482759 19:0.10344828 20:0.034482759 
-0.3913376054314688 1:0.060606061 2:0.12121212 3:0.090909091 4:0 5:0.060606061 6:0 7:0.060606061 8:0 9:0.18181818 10:0.03030303 11:0.090909091 12:0.03030303 13:0 14:0 15:0.060606061 16:0.090909091 17:0 18:0.03030303 19:0.03030303 20:0.060606061 
-0.8679283865462193 1:0.08 2:0.2 3:0.04 4:0.04 5:0.04 6:0.04 7:0 8:0.08 9:0.12 10:0 11:0.04 12:0.08 13:0 14:0 15:0 16:0.08 17:0.04 18:0 19:0.08 20:0.04 
-0.2066187404258008 1:0 2:0.14285714 3:0.10714286 4:0.071428571 5:0.035714286 6:0 7:0 8:0.071428571 9:0.17857143 10:0.035714286 11:0.17857143 12:0 13:0 14:0 15:0 16:0.071428571 17:0 18:0.10714286 19:0 20:0 
-1 1:0.11111111 2:0.11111111 3:0.11111111 4:0 5:0.083333333 6:0 7:0 8:0 9:0.083333333 10:0 11:0.11111111 12:0.027777778 13:0.027777778 14:0.027777778 15:0.027777778 16:0.13888889 17:0.027777778 18:0.027777778 19:0.055555556 20:0.027777778 
-0.8599107898007408 1:0.074074074 2:0.11111111 3:0.11111111 4:0.037037037 5:0 6:0 7:0.037037037 8:0.037037037 9:0.11111111 10:0 11:0.11111111 12:0.074074074 13:0.037037037 14:0 15:0 16:0.14814815 17:0.074074074 18:0 19:0.037037037 20:0 
-0.2062806157863941 1:0.038461538 2:0.15384615 3:0.038461538 4:0 5:0.076923077 6:0 7:0 8:0.076923077 9:0.19230769 10:0 11:0.076923077 12:0.038461538 13:0 14:0 15:0.038461538 16:0.038461538 17:0.038461538 18:0.038461538 19:0.11538462 20:0.038461538 
-0.1785337229160981 1:0.038461538 2:0.15384615 3:0 4:0 5:0.076923077 6:0 7:0 8:0.038461538 9:0.53846154 10:0 11:0.038461538 12:0.038461538 13:0 14:0 15:0.038461538 16:0 17:0 18:0.038461538 19:0 20:0 
-0.2134295374618982 1:0.13793103 2:0.034482759 3:0.034482759 4:0.034482759 5:0.068965517 6:0.034482759 7:0 8:0.034482759 9:0.24137931 10:0 11:0.13793103 12:0.034482759 13:0 14:0 15:0 16:0.068965517 17:0.068965517 18:0 19:0 20:0.068965517 
-0.3496048144312771 1:0.037037037 2:0.11111111 3:0.037037037 4:0 5:0.11111111 6:0 7:0 8:0.074074074 9:0.18518519 10:0.037037037 11:0.074074074 12:0.14814815 13:0 14:0.037037037 15:0.037037037 16:0.037037037 17:0.037037037 18:0 19:0 20:0.037037037 
-1 1:0.12121212 2:0.15151515 3:0 4:0 5:0 6:0.03030303 7:0 8:0.03030303 9:0.15151515 10:0 11:0.090909091 12:0.060606061 13:0.03030303 14:0 15:0.090909091 16:0.060606061 17:0.060606061 18:0.060606061 19:0 20:0.060606061 
-0.164076819922396 1:0.037037037 2:0.11111111 3:0.037037037 4:0 5:0.074074074 6:0 7:0 8:0.037037037 9:0.37037037 10:0.074074074 11:0 12:0 13:0 14:0 15:0 16:0.074074074 17:0.074074074 18:0.074074074 19:0 20:0.037037037 
-1 1:0.096774194 2:0.096774194 3:0.064516129 4:0.032258065 5:0 6:0.032258065 7:0 8:0 9:0.16129032 10:0.064516129 11:0.064516129 12:0.032258065 13:0 14:0 15:0.12903226 16:0.032258065 17:0.096774194 18:0.032258065 19:0.032258065 20:0.032258065 
-0.3229631064359946 1:0.17857143 2:0 3:0.10714286 4:0.035714286 5:0.035714286 6:0 7:0 8:0.10714286 9:0.21428571 10:0.071428571 11:0.071428571 12:0.035714286 13:0 14:0 15:0 16:0.035714286 17:0.035714286 18:0 19:0.071428571 20:0 
-0.03552924925213089 1:0.090909091 2:0.060606061 3:0.03030303 4:0 5:0.03030303 6:0 7:0 8:0.03030303 9:0.33333333 10:0 11:0.090909091 12:0.090909091 13:0 14:0 15:0 16:0.12121212 17:0 18:0.03030303 19:0.060606061 20:0.03030303 
-0.9092881053817892 1:0.10344828 2:0.10344828 3:0.068965517 4:0 5:0.17241379 6:0 7:0 8:0 9:0.13793103 10:0.10344828 11:0.034482759 12:0.034482759 13:0.034482759 14:0.068965517 15:0.034482759 16:0.034482759 17:0.034482759 18:0.034482759 19:0 20:0 
-0.2377351500007474 1:0.13333333 2:0.1 3:0.033333333 4:0.033333333 5:0.033333333 6:0 7:0 8:0.1 9:0.16666667 10:0 11:0.1 12:0.033333333 13:0 14:0 15:0 16:0.066666667 17:0.066666667 18:0.033333333 19:0.1 20:0 
-0.7729726916657542 1:0 2:0.09375 3:0.0625 4:0 5:0.0625 6:0 7:0 8:0.0625 9:0.21875 10:0.09375 11:0.03125 12:0.125 13:0.0625 14:0 15:0.09375 16:0 17:0 18:0.03125 19:0 20:0.0625 
-0.2286472527738349 1:0.11111111 2:0.083333333 3:0.027777778 4:0.027777778 5:0 6:0 7:0.027777778 8:0.027777778 9:0.27777778 10:0 11:0.083333333 12:0.13888889 13:0 14:0 15:0.055555556 16:0.055555556 17:0 18:0.027777778 19:0.027777778 20:0.027777778 
-0.479512487804034 1:0.0625 2:0.25 3:0.03125 4:0.03125 5:0.15625 6:0.03125 7:0 8:0 9:0.125 10:0.03125 11:0 12:0.0625 13:0 14:0.03125 15:0.0625 16:0 17:0 18:0 19:0.09375 20:0.03125 
-0.6013879259026668 1:0.076923077 2:0.15384615 3:0.076923077 4:0 5:0.076923077 6:0 7:0 8:0.038461538 9:0.23076923 10:0.038461538 11:0 12:0.038461538 13:0.038461538 14:0.038461538 15:0 16:0.038461538 17:0.076923077 18:0.038461538 19:0 20:0.038461538 
-1 1:0.069767442 2:0.093023256 3:0 4:0.069767442 5:0.069767442 6:0 7:0.023255814 8:0.046511628 9:0.13953488 10:0.023255814 11:0.093023256 12:0.093023256 13:0.023255814 14:0.023255814 15:0.023255814 16:0.069767442 17:0.023255814 18:0.046511628 19:0.069767442 20:0 
-0.6704489930118125 1:0.13333333 2:0.1 3:0.066666667 4:0.033333333 5:0 6:0 7:0 8:0.16666667 9:0.23333333 10:0 11:0.033333333 12:0.066666667 13:0 14:0 15:0.033333333 16:0.033333333 17:0.033333333 18:0.033333333 19:0.033333333 20:0 
-0.2088637130785409 1:0.032258065 2:0.19354839 3:0.064516129 4:0.032258065 5:0 6:0 7:0 8:0.12903226 9:0.16129032 10:0.096774194 11:0.032258065 12:0.064516129 13:0 14:0 15:0.032258065 16:0.032258065 17:0.096774194 18:0 19:0.032258065 20:0 
-0.4459656147011163 1:0.068965517 2:0.034482759 3:0.17241379 4:0.068965517 5:0 6:0 7:0 8:0.034482759 9:0.24137931 10:0 11:0.034482759 12:0.068965517 13:0 14:0.034482759 15:0.034482759 16:0.10344828 17:0 18:0 19:0.034482759 20:0.068965517 
-1 1:0.033333333 2:0.23333333 3:0.066666667 4:0.066666667 5:0.033333333 6:0 7:0.033333333 8:0.066666667 9:0.033333333 10:0.033333333 11:0.16666667 12:0 13:0 14:0 15:0 16:0.066666667 17:0.1 18:0.033333333 19:0.033333333 20:0 
-0.8187113094857135 1:0.10344828 2:0.24137931 3:0 4:0.034482759 5:0 6:0.034482759 7:0 8:0.10344828 9:0.13793103 10:0 11:0.10344828 12:0.034482759 13:0 14:0 15:0.068965517 16:0.034482759 17:0.034482759 18:0.034482759 19:0 20:0.034482759 
-1 1:0.032258065 2:0.16129032 3:0.032258065 4:0.096774194 5:0 6:0.032258065 7:0.032258065 8:0 9:0.12903226 10:0.064516129 11:0.032258065 12:0.12903226 13:0 14:0 15:0 16:0.064516129 17:0.064516129 18:0.032258065 19:0.032258065 20:0.064516129 
-0.2475175951939445 1:0.04 2:0.16 3:0.08 4:0.04 5:0.12 6:0 7:0 8:0 9:0.04 10:0.04 11:0.24 12:0.04 13:0 14:0 15:0 16:0.08 17:0.04 18:0.04 19:0 20:0.04 
-0.0009587635026205379 1:0.035714286 2:0.14285714 3:0.035714286 4:0.035714286 5:0 6:0 7:0 8:0.17857143 9:0.28571429 10:0 11:0.035714286 12:0.10714286 13:0 14:0.035714286 15:0.035714286 16:0.035714286 17:0 18:0.035714286 19:0 20:0 
-0.4388552129615933 1:0.10344828 2:0.034482759 3:0 4:0.068965517 5:0.068965517 6:0 7:0 8:0.068965517 9:0.27586207 10:0.068965517 11:0 12:0.068965517 13:0.034482759 14:0 15:0.034482759 16:0.13793103 17:0 18:0.034482759 19:0 20:0 
-0.04566109870189625 1:0.034482759 2:0.10344828 3:0.13793103 4:0.068965517 5:0.034482759 6:0 7:0 8:0.034482759 9:0.31034483 10:0.034482759 11:0 12:0 13:0 14:0.034482759 15:0.034482759 16:0.034482759 17:0 18:0.068965517 19:0.068965517 20:0 
-0.7895814132489418 1:0.088235294 2:0.17647059 3:0.029411765 4:0 5:0.11764706 6:0 7:0.029411765 8:0.058823529 9:0.088235294 10:0.029411765 11:0.14705882 12:0.058823529 13:0.029411765 14:0 15:0.058823529 16:0.029411765 17:0.029411765 18:0 19:0 20:0.029411765 
-1 1:0.071428571 2:0.14285714 3:0.071428571 4:0 5:0 6:0 7:0.035714286 8:0.071428571 9:0.10714286 10:0.071428571 11:0.035714286 12:0.071428571 13:0 14:0.035714286 15:0 16:0.071428571 17:0.071428571 18:0.035714286 19:0.071428571 20:0.035714286 
-1 1:0.12727273 2:0.090909091 3:0.090909091 4:0 5:0.036363636 6:0.036363636 7:0.018181818 8:0.072727273 9:0.14545455 10:0 11:0.10909091 12:0.054545455 13:0 14:0.036363636 15:0.036363636 16:0.036363636 17:0.018181818 18:0.018181818 19:0.072727273 20:0 
-1 1:0.090909091 2:0.15151515 3:0.090909091 4:0 5:0.060606061 6:0 7:0.060606061 8:0.060606061 9:0.090909091 10:0 11:0.060606061 12:0.090909091 13:0 14:0.03030303 15:0.060606061 16:0.03030303 17:0 18:0.060606061 19:0.03030303 20:0.03030303 
-1 1:0.03030303 2:0.18181818 3:0.060606061 4:0 5:0.03030303 6:0 7:0.090909091 8:0.090909091 9:0.090909091 10:0.03030303 11:0.090909091 12:0 13:0.060606061 14:0.03030303 15:0.060606061 16:0.060606061 17:0.03030303 18:0 19:0.03030303 20:0.03030303 
-0.590802850744294 1:0.037037037 2:0.11111111 3:0.074074074 4:0 5:0.14814815 6:0 7:0 8:0.11111111 9:0.22222222 10:0 11:0.037037037 12:0.037037037 13:0 14:0 15:0.037037037 16:0.037037037 17:0.037037037 18:0.037037037 19:0.037037037 20:0.037037037 
-0.04424417400506688 1:0 2:0.10714286 3:0.10714286 4:0.035714286 5:0.071428571 6:0 7:0 8:0.10714286 9:0.17857143 10:0 11:0.035714286 12:0.17857143 13:0 14:0 15:0 16:0.071428571 17:0 18:0 19:0.10714286 20:0 
-0.3070581056720416 1:0.071428571 2:0.10714286 3:0.071428571 4:0 5:0.035714286 6:0 7:0 8:0.035714286 9:0.25 10:0.071428571 11:0.071428571 12:0.071428571 13:0 14:0 15:0 16:0.071428571 17:0 18:0.071428571 19:0.071428571 20:0 
-1 1:0.095238095 2:0.14285714 3:0.095238095 4:0 5:0 6:0 7:0.047619048 8:0.14285714 9:0.047619048 10:0 11:0 12:0.14285714 13:0 14:0 15:0.047619048 16:0.047619048 17:0.047619048 18:0.095238095 19:0 20:0.047619048 
-0.7497898816342664 1:0.034482759 2:0.068965517 3:0.034482759 4:0.10344828 5:0.034482759 6:0.13793103 7:0.034482759 8:0.068965517 9:0.17241379 10:0.034482759 11:0.068965517 12:0.034482759 13:0.034482759 14:0 15:0.034482759 16:0.034482759 17:0 18:0.034482759 19:0.034482759 20:0 
-0.2134103333586139 1:0.078947368 2:0.13157895 3:0 4:0.052631579 5:0 6:0 7:0 8:0.052631579 9:0.23684211 10:0.052631579 11:0.052631579 12:0.10526316 13:0 14:0 15:0.052631579 16:0.026315789 17:0.026315789 18:0.026315789 19:0.078947368 20:0.026315789 
-0.6274114044243218 1:0.088235294 2:0.23529412 3:0.14705882 4:0.029411765 5:0 6:0 7:0 8:0.058823529 9:0.11764706 10:0.058823529 11:0 12:0.029411765 13:0 14:0.058823529 15:0.029411765 16:0.058823529 17:0.029411765 18:0 19:0.058823529 20:0 
-0.1739688882408729 1:0.032258065 2:0.22580645 3:0 4:0 5:0.032258065 6:0 7:0 8:0 9:0.19354839 10:0.032258065 11:0.12903226 12:0 13:0.032258065 14:0.032258065 15:0.096774194 16:0.032258065 17:0.096774194 18:0.032258065 19:0 20:0.032258065 
-0.2777082961346052 1:0 2:0.0625 3:0.09375 4:0.0625 5:0.0625 6:0 7:0.03125 8:0.0625 9:0.25 10:0 11:0.09375 12:0.0625 13:0 14:0 15:0.0625 16:0.09375 17:0.03125 18:0 19:0 20:0.03125 
-0.2632839769762919 1:0.038461538 2:0.038461538 3:0.038461538 4:0.076923077 5:0 6:0 7:0 8:0.076923077 9:0.30769231 10:0.038461538 11:0.038461538 12:0 13:0 14:0.038461538 15:0.038461538 16:0.076923077 17:0.076923077 18:0.038461538 19:0.076923077 20:0 
-0.698562141184465 1:0.071428571 2:0.071428571 3:0.071428571 4:0 5:0.035714286 6:0 7:0 8:0.035714286 9:0.28571429 10:0.035714286 11:0.035714286 12:0.10714286 13:0 14:0.035714286 15:0.10714286 16:0.035714286 17:0.035714286 18:0 19:0 20:0.035714286 
-0.9909038205373484 1:0.1 2:0.2 3:0 4:0.1 5:0.05 6:0.05 7:0.05 8:0.1 9:0.1 10:0 11:0 12:0.05 13:0.05 14:0 15:0.05 16:0.05 17:0.05 18:0 19:0 20:0 
-1 1:0.076923077 2:0.038461538 3:0.15384615 4:0 5:0.11538462 6:0 7:0.038461538 8:0.038461538 9:0.11538462 10:0 11:0.11538462 12:0.038461538 13:0.038461538 14:0 15:0.076923077 16:0 17:0.038461538 18:0.038461538 19:0.038461538 20:0.038461538 
-0.0258353117602755 1:0.033333333 2:0.1 3:0.033333333 4:0.033333333 5:0.2 6:0 7:0.066666667 8:0 9:0.13333333 10:0.066666667 11:0.1 12:0.033333333 13:0 14:0 15:0.033333333 16:0.13333333 17:0 18:0.033333333 19:0 20:0 
-0.42909627391183 1:0.035714286 2:0.25 3:0 4:0 5:0.035714286 6:0.035714286 7:0.035714286 8:0.071428571 9:0.17857143 10:0.071428571 11:0.035714286 12:0.071428571 13:0 14:0 15:0 16:0.035714286 17:0.035714286 18:0.071428571 19:0 20:0.035714286 
-0.01510530900972159 1:0.037037037 2:0.14814815 3:0.11111111 4:0 5:0 6:0 7:0 8:0 9:0.14814815 10:0.037037037 11:0.14814815 12:0.074074074 13:0.037037037 14:0 15:0 16:0.037037037 17:0.14814815 18:0 19:0.074074074 20:0 
