svm_type c_svc
kernel_type linear
nr_class 2
total_sv 253
rho 1.01693
label 0 7
nr_sv 128 125
SV
1 1:0.043478261 2:0.086956522 3:0.086956522 4:0.043478261 5:0 6:0 7:0 8:0 9:0.17391304 10:0.043478261 11:0.13043478 12:0.13043478 13:0.043478261 14:0 15:0.13043478 16:0.043478261 17:0 18:0 19:0.043478261 20:0 
1 1:0.20930233 2:0.093023256 3:0 4:0.046511628 5:0.023255814 6:0 7:0 8:0.18604651 9:0.1627907 10:0 11:0.046511628 12:0.069767442 13:0 14:0 15:0.11627907 16:0 17:0.023255814 18:0 19:0 20:0.023255814 
1 1:0.097560976 2:0.097560976 3:0.048780488 4:0.048780488 5:0.024390244 6:0.024390244 7:0 8:0.17073171 9:0.2195122 10:0.024390244 11:0.024390244 12:0.073170732 13:0 14:0 15:0.097560976 16:0.024390244 17:0 18:0 19:0 20:0.024390244 
1 1:0.073170732 2:0.12195122 3:0.024390244 4:0.024390244 5:0.024390244 6:0.024390244 7:0 8:0.19512195 9:0.29268293 10:0.024390244 11:0.024390244 12:0.048780488 13:0 14:0 15:0.073170732 16:0.024390244 17:0 18:0 19:0 20:0.024390244 
1 1:0.066666667 2:0.033333333 3:0.16666667 4:0.13333333 5:0.1 6:0 7:0 8:0.033333333 9:0.13333333 10:0.033333333 11:0 12:0.066666667 13:0.033333333 14:0 15:0.066666667 16:0 17:0 18:0 19:0.1 20:0.033333333 
1 1:0.064516129 2:0.096774194 3:0.032258065 4:0.032258065 5:0 6:0.032258065 7:0 8:0.12903226 9:0.32258065 10:0.064516129 11:0.032258065 12:0 13:0 14:0.032258065 15:0.064516129 16:0.032258065 17:0 18:0 19:0.032258065 20:0.032258065 
1 1:0.078947368 2:0.052631579 3:0.078947368 4:0.078947368 5:0.026315789 6:0 7:0.078947368 8:0 9:0.052631579 10:0.10526316 11:0.052631579 12:0.078947368 13:0.026315789 14:0.026315789 15:0.026315789 16:0.026315789 17:0.026315789 18:0.078947368 19:0.078947368 20:0.026315789 
1 1:0.088235294 2:0.17647059 3:0.088235294 4:0.058823529 5:0.088235294 6:0 7:0 8:0.058823529 9:0.058823529 10:0.029411765 11:0.058823529 12:0.088235294 13:0 14:0.029411765 15:0.029411765 16:0.088235294 17:0 18:0.029411765 19:0 20:0.029411765 
1 1:0.12903226 2:0.12903226 3:0.096774194 4:0.064516129 5:0.064516129 6:0 7:0.032258065 8:0 9:0.096774194 10:0.032258065 11:0.12903226 12:0 13:0.064516129 14:0 15:0 16:0.032258065 17:0.096774194 18:0 19:0.032258065 20:0 
1 1:0.027027027 2:0.13513514 3:0.10810811 4:0.027027027 5:0.081081081 6:0.027027027 7:0 8:0.10810811 9:0.081081081 10:0 11:0.10810811 12:0.054054054 13:0.027027027 14:0.027027027 15:0.027027027 16:0.10810811 17:0.027027027 18:0.027027027 19:0 20:0 
1 1:0.029411765 2:0.23529412 3:0.029411765 4:0.058823529 5:0.058823529 6:0 7:0.029411765 8:0.088235294 9:0.088235294 10:0.058823529 11:0.11764706 12:0.029411765 13:0 14:0 15:0 16:0.088235294 17:0 18:0.029411765 19:0.058823529 20:0 
1 1:0.125 2:0.15625 3:0.0625 4:0.0625 5:0.0625 6:0 7:0 8:0 9:0.03125 10:0.03125 11:0.09375 12:0.125 13:0.03125 14:0 15:0.09375 16:0.09375 17:0.03125 18:0 19:0 20:0 
1 1:0.071428571 2:0.17857143 3:0 4:0.035714286 5:0 6:0.035714286 7:0 8:0.071428571 9:0.17857143 10:0.035714286 11:0.071428571 12:0.14285714 13:0 14:0 15:0 16:0.10714286 17:0 18:0.035714286 19:0 20:0.035714286 
1 1:0 2:0.17142857 3:0.057142857 4:0.057142857 5:0.11428571 6:0.028571429 7:0 8:0.057142857 9:0.14285714 10:0.028571429 11:0.028571429 12:0.085714286 13:0.028571429 14:0.057142857 15:0.085714286 16:0.057142857 17:0 18:0 19:0 20:0 
1 1:0.096774194 2:0.064516129 3:0.032258065 4:0.032258065 5:0 6:0.032258065 7:0 8:0.096774194 9:0.25806452 10:0.064516129 11:0.064516129 12:0.096774194 13:0 14:0 15:0.064516129 16:0 17:0.096774194 18:0 19:0 20:0 
1 1:0.0625 2:0.15625 3:0 4:0.09375 5:0.1875 6:0 7:0 8:0.0625 9:0.15625 10:0.03125 11:0.03125 12:0.03125 13:0 14:0 15:0.0625 16:0.0625 17:0 18:0.0625 19:0 20:0 
1 1:0.11904762 2:0.071428571 3:0 4:0.023809524 5:0.023809524 6:0 7:0.023809524 8:0.071428571 9:0.21428571 10:0 11:0.047619048 12:0.095238095 13:0 14:0 15:0.047619048 16:0.11904762 17:0.047619048 18:0.023809524 19:0.047619048 20:0.023809524 
1 1:0.15909091 2:0.068181818 3:0.045454545 4:0.045454545 5:0.045454545 6:0.022727273 7:0.022727273 8:0.068181818 9:0.11363636 10:0.022727273 11:0 12:0.045454545 13:0 14:0.022727273 15:0.022727273 16:0.15909091 17:0.068181818 18:0.022727273 19:0 20:0.045454545 
1 1:0.13157895 2:0.026315789 3:0.026315789 4:0.078947368 5:0.078947368 6:0 7:0.052631579 8:0.052631579 9:0.13157895 10:0 11:0.18421053 12:0 13:0 14:0.026315789 15:0.078947368 16:0.078947368 17:0 18:0.026315789 19:0.026315789 20:0 
1 1:0.047619048 2:0.071428571 3:0.047619048 4:0.023809524 5:0.11904762 6:0 7:0.023809524 8:0.095238095 9:0.047619048 10:0 11:0.14285714 12:0.071428571 13:0 14:0 15:0.071428571 16:0.11904762 17:0.047619048 18:0 19:0.047619048 20:0.023809524 
1 1:0.090909091 2:0.11363636 3:0.068181818 4:0.068181818 5:0.022727273 6:0 7:0 8:0.13636364 9:0.045454545 10:0 11:0.045454545 12:0.090909091 13:0.022727273 14:0.022727273 15:0 16:0.15909091 17:0.045454545 18:0.045454545 19:0.022727273 20:0 
1 1:0.12903226 2:0.16129032 3:0.064516129 4:0.032258065 5:0.032258065 6:0 7:0 8:0.096774194 9:0.032258065 10:0 11:0.12903226 12:0.096774194 13:0.032258065 14:0 15:0 16:0.096774194 17:0.064516129 18:0 19:0.032258065 20:0 
1 1:0.12903226 2:0.16129032 3:0.032258065 4:0.032258065 5:0.032258065 6:0 7:0 8:0.064516129 9:0.032258065 10:0 11:0.16129032 12:0.12903226 13:0.032258065 14:0 15:0 16:0.096774194 17:0.064516129 18:0 19:0.032258065 20:0 
1 1:0.11111111 2:0.14814815 3:0.037037037 4:0.074074074 5:0 6:0 7:0 8:0.074074074 9:0.18518519 10:0.037037037 11:0.037037037 12:0.074074074 13:0.037037037 14:0.037037037 15:0.11111111 16:0 17:0.037037037 18:0 19:0 20:0 
1 1:0.13333333 2:0.16666667 3:0.066666667 4:0.033333333 5:0.033333333 6:0 7:0 8:0.066666667 9:0.033333333 10:0.033333333 11:0.13333333 12:0.1 13:0.033333333 14:0 15:0 16:0.066666667 17:0.033333333 18:0.033333333 19:0.033333333 20:0 
1 1:0.035714286 2:0.17857143 3:0.17857143 4:0.071428571 5:0.035714286 6:0 7:0 8:0.10714286 9:0.035714286 10:0 11:0.071428571 12:0.035714286 13:0.035714286 14:0 15:0.035714286 16:0.10714286 17:0 18:0.035714286 19:0.035714286 20:0 
1 1:0.033333333 2:0 3:0 4:0.033333333 5:0 6:0.033333333 7:0 8:0 9:0.33333333 10:0.23333333 11:0.033333333 12:0.033333333 13:0 14:0.033333333 15:0.16666667 16:0 17:0 18:0.033333333 19:0 20:0.033333333 
1 1:0.025 2:0.1 3:0 4:0.025 5:0 6:0 7:0 8:0.125 9:0.225 10:0.075 11:0.125 12:0.15 13:0 14:0.05 15:0.1 16:0 17:0 18:0 19:0 20:0 
1 1:0 2:0.15625 3:0 4:0.09375 5:0 6:0 7:0 8:0.125 9:0.25 10:0.09375 11:0.03125 12:0.125 13:0 14:0 15:0.09375 16:0 17:0.03125 18:0 19:0 20:0 
1 1:0.16216216 2:0.081081081 3:0.027027027 4:0.054054054 5:0 6:0 7:0 8:0.21621622 9:0.24324324 10:0 11:0.054054054 12:0.027027027 13:0 14:0 15:0.10810811 16:0 17:0 18:0 19:0.027027027 20:0 
1 1:0.033333333 2:0.26666667 3:0.066666667 4:0.033333333 5:0.13333333 6:0 7:0 8:0 9:0.066666667 10:0.033333333 11:0.066666667 12:0.066666667 13:0 14:0 15:0 16:0.033333333 17:0 18:0.033333333 19:0.066666667 20:0.1 
1 1:0.15625 2:0.09375 3:0.0625 4:0.0625 5:0.09375 6:0.03125 7:0 8:0 9:0.09375 10:0 11:0.15625 12:0.0625 13:0 14:0 15:0.0625 16:0.03125 17:0.03125 18:0.03125 19:0 20:0.03125 
1 1:0.047619048 2:0.16666667 3:0.047619048 4:0.023809524 5:0.095238095 6:0 7:0 8:0.023809524 9:0.16666667 10:0.047619048 11:0.071428571 12:0.071428571 13:0 14:0.023809524 15:0 16:0.095238095 17:0.023809524 18:0.023809524 19:0.047619048 20:0.023809524 
1 1:0.064516129 2:0.064516129 3:0.12903226 4:0.032258065 5:0.12903226 6:0.032258065 7:0 8:0 9:0.22580645 10:0.064516129 11:0 12:0.064516129 13:0 14:0 15:0.096774194 16:0 17:0.032258065 18:0 19:0.032258065 20:0.032258065 
0.2123997516233876 1:0.097560976 2:0.073170732 3:0.048780488 4:0.024390244 5:0 6:0 7:0.024390244 8:0.048780488 9:0.26829268 10:0.024390244 11:0.097560976 12:0.12195122 13:0 14:0.048780488 15:0.048780488 16:0.024390244 17:0.048780488 18:0 19:0 20:0 
1 1:0.043478261 2:0.065217391 3:0.02173913 4:0.043478261 5:0.02173913 6:0 7:0 8:0.086956522 9:0.26086957 10:0 11:0.17391304 12:0.086956522 13:0 14:0 15:0.13043478 16:0 17:0 18:0 19:0.02173913 20:0.043478261 
1 1:0.066666667 2:0.088888889 3:0.066666667 4:0.044444444 5:0.044444444 6:0 7:0.044444444 8:0.022222222 9:0.022222222 10:0.066666667 11:0.044444444 12:0.044444444 13:0 14:0.022222222 15:0.066666667 16:0.066666667 17:0.066666667 18:0.088888889 19:0.088888889 20:0.044444444 
0.3886017878233413 1:0.022727273 2:0.068181818 3:0.068181818 4:0.068181818 5:0.022727273 6:0.022727273 7:0 8:0.022727273 9:0.27272727 10:0.045454545 11:0.090909091 12:0.068181818 13:0 14:0 15:0.090909091 16:0.068181818 17:0.045454545 18:0 19:0 20:0.022727273 
1 1:0.032258065 2:0.16129032 3:0.032258065 4:0.032258065 5:0.096774194 6:0.064516129 7:0 8:0.032258065 9:0.032258065 10:0.032258065 11:0.032258065 12:0.064516129 13:0.064516129 14:0 15:0.096774194 16:0.064516129 17:0.096774194 18:0.032258065 19:0.032258065 20:0 
1 1:0.14285714 2:0.035714286 3:0.14285714 4:0.071428571 5:0.10714286 6:0 7:0 8:0 9:0.17857143 10:0 11:0.035714286 12:0.071428571 13:0 14:0.035714286 15:0.035714286 16:0.071428571 17:0 18:0 19:0.071428571 20:0 
1 1:0.17948718 2:0.12820513 3:0 4:0.076923077 5:0.076923077 6:0 7:0 8:0.051282051 9:0.076923077 10:0.051282051 11:0.076923077 12:0.051282051 13:0 14:0.025641026 15:0.025641026 16:0.12820513 17:0.025641026 18:0.025641026 19:0 20:0 
1 1:0.055555556 2:0.19444444 3:0.11111111 4:0.027777778 5:0.055555556 6:0 7:0.027777778 8:0 9:0.083333333 10:0 11:0.16666667 12:0.027777778 13:0 14:0 15:0 16:0.11111111 17:0 18:0.027777778 19:0.083333333 20:0.027777778 
1 1:0.076923077 2:0.12820513 3:0.076923077 4:0.051282051 5:0.051282051 6:0 7:0 8:0.025641026 9:0.1025641 10:0 11:0.12820513 12:0.025641026 13:0 14:0.025641026 15:0 16:0.1025641 17:0.051282051 18:0.051282051 19:0.076923077 20:0.025641026 
1 1:0.03125 2:0.09375 3:0.15625 4:0.0625 5:0.09375 6:0 7:0 8:0 9:0.09375 10:0.0625 11:0.09375 12:0.0625 13:0 14:0 15:0 16:0.125 17:0.03125 18:0.03125 19:0.03125 20:0.03125 
1 1:0.10714286 2:0.17857143 3:0.14285714 4:0.035714286 5:0.10714286 6:0 7:0 8:0 9:0.071428571 10:0.035714286 11:0.071428571 12:0.035714286 13:0.035714286 14:0 15:0.035714286 16:0.035714286 17:0 18:0.035714286 19:0.071428571 20:0 
1 1:0.10714286 2:0.17857143 3:0.14285714 4:0.035714286 5:0.10714286 6:0 7:0 8:0 9:0.071428571 10:0.035714286 11:0.071428571 12:0.035714286 13:0.035714286 14:0 15:0.035714286 16:0.035714286 17:0 18:0.035714286 19:0.071428571 20:0 
1 1:0.10714286 2:0.17857143 3:0.17857143 4:0.035714286 5:0.071428571 6:0 7:0.035714286 8:0 9:0.071428571 10:0.035714286 11:0.071428571 12:0.035714286 13:0 14:0 15:0.071428571 16:0.035714286 17:0 18:0.035714286 19:0.035714286 20:0 
1 1:0.15151515 2:0.060606061 3:0.18181818 4:0.03030303 5:0 6:0 7:0.03030303 8:0 9:0.12121212 10:0.03030303 11:0.15151515 12:0.03030303 13:0 14:0 15:0 16:0.12121212 17:0 18:0 19:0.090909091 20:0 
1 1:0.10714286 2:0.17857143 3:0.17857143 4:0.035714286 5:0.071428571 6:0 7:0.035714286 8:0 9:0.071428571 10:0.035714286 11:0.071428571 12:0.035714286 13:0 14:0.035714286 15:0.035714286 16:0.035714286 17:0 18:0.035714286 19:0.035714286 20:0 
1 1:0.076923077 2:0.19230769 3:0.11538462 4:0.038461538 5:0.11538462 6:0 7:0 8:0 9:0.076923077 10:0.038461538 11:0.076923077 12:0.038461538 13:0 14:0 15:0 16:0.11538462 17:0 18:0 19:0.11538462 20:0 
1 1:0.035714286 2:0.21428571 3:0.071428571 4:0.035714286 5:0.071428571 6:0 7:0 8:0.035714286 9:0.071428571 10:0.035714286 11:0.10714286 12:0.14285714 13:0 14:0 15:0 16:0.10714286 17:0 18:0.035714286 19:0.035714286 20:0 
1 1:0.060606061 2:0.15151515 3:0 4:0.060606061 5:0 6:0 7:0.03030303 8:0.090909091 9:0.27272727 10:0.03030303 11:0.03030303 12:0.090909091 13:0 14:0 15:0.060606061 16:0.03030303 17:0.03030303 18:0.03030303 19:0.03030303 20:0 
1 1:0.081081081 2:0.081081081 3:0.054054054 4:0.081081081 5:0.027027027 6:0 7:0.027027027 8:0.13513514 9:0.13513514 10:0 11:0.027027027 12:0.027027027 13:0 14:0.027027027 15:0.054054054 16:0.10810811 17:0.027027027 18:0.027027027 19:0.054054054 20:0.027027027 
1 1:0.17142857 2:0.11428571 3:0.028571429 4:0.028571429 5:0.028571429 6:0.028571429 7:0 8:0.028571429 9:0.057142857 10:0 11:0.14285714 12:0.085714286 13:0 14:0 15:0.085714286 16:0.17142857 17:0 18:0.028571429 19:0 20:0 
1 1:0.11538462 2:0.19230769 3:0.076923077 4:0.076923077 5:0.038461538 6:0 7:0 8:0.076923077 9:0.038461538 10:0 11:0.15384615 12:0.076923077 13:0.038461538 14:0 15:0.038461538 16:0.038461538 17:0.038461538 18:0 19:0 20:0 
0.1702469827566487 1:0.033333333 2:0.16666667 3:0.13333333 4:0.066666667 5:0.033333333 6:0 7:0 8:0.066666667 9:0.13333333 10:0.066666667 11:0.13333333 12:0.066666667 13:0.033333333 14:0 15:0.033333333 16:0.033333333 17:0 18:0 19:0 20:0 
1 1:0.090909091 2:0.045454545 3:0.090909091 4:0.068181818 5:0 6:0 7:0 8:0.022727273 9:0.18181818 10:0.022727273 11:0.11363636 12:0.090909091 13:0 14:0 15:0.068181818 16:0.068181818 17:0.045454545 18:0.022727273 19:0.068181818 20:0 
1 1:0.066666667 2:0.2 3:0 4:0.033333333 5:0 6:0 7:0 8:0.066666667 9:0.2 10:0.033333333 11:0 12:0.2 13:0 14:0 15:0.066666667 16:0.033333333 17:0.066666667 18:0.033333333 19:0 20:0 
1 1:0.042553191 2:0.10638298 3:0 4:0.042553191 5:0.021276596 6:0 7:0 8:0.10638298 9:0.17021277 10:0.085106383 11:0.063829787 12:0.12765957 13:0 14:0.042553191 15:0.14893617 16:0 17:0 18:0.042553191 19:0 20:0 
0.9132893977925339 1:0 2:0.18518519 3:0.037037037 4:0.11111111 5:0.11111111 6:0 7:0.037037037 8:0 9:0.14814815 10:0.037037037 11:0 12:0.11111111 13:0.037037037 14:0 15:0 16:0.074074074 17:0.037037037 18:0 19:0.074074074 20:0 
1 1:0.0625 2:0.15625 3:0.09375 4:0.0625 5:0.03125 6:0 7:0.03125 8:0.125 9:0.09375 10:0 11:0.15625 12:0.03125 13:0 14:0.03125 15:0.03125 16:0.0625 17:0 18:0 19:0.03125 20:0 
0.3154620800040884 1:0.11904762 2:0.16666667 3:0.047619048 4:0.071428571 5:0.047619048 6:0 7:0 8:0.047619048 9:0.071428571 10:0.023809524 11:0.16666667 12:0.071428571 13:0 14:0 15:0.047619048 16:0.095238095 17:0 18:0.023809524 19:0 20:0 
1 1:0.25714286 2:0.11428571 3:0.057142857 4:0.057142857 5:0.057142857 6:0 7:0 8:0.057142857 9:0.057142857 10:0.028571429 11:0.17142857 12:0 13:0.028571429 14:0 15:0 16:0.085714286 17:0.028571429 18:0 19:0 20:0 
1 1:0.088888889 2:0.17777778 3:0.066666667 4:0.022222222 5:0.044444444 6:0.022222222 7:0.022222222 8:0.11111111 9:0.044444444 10:0.022222222 11:0.15555556 12:0.022222222 13:0 14:0 15:0.022222222 16:0.066666667 17:0.044444444 18:0.022222222 19:0.044444444 20:0 
1 1:0.038461538 2:0.11538462 3:0.15384615 4:0.038461538 5:0.11538462 6:0 7:0.038461538 8:0.038461538 9:0.076923077 10:0.038461538 11:0.076923077 12:0.076923077 13:0 14:0.038461538 15:0.038461538 16:0.076923077 17:0 18:0.038461538 19:0 20:0 
1 1:0.033333333 2:0.2 3:0.16666667 4:0.1 5:0.033333333 6:0 7:0 8:0 9:0.066666667 10:0.033333333 11:0.13333333 12:0.033333333 13:0 14:0 15:0 16:0.1 17:0.066666667 18:0 19:0.033333333 20:0 
1 1:0.085714286 2:0.085714286 3:0.085714286 4:0.085714286 5:0.17142857 6:0 7:0.028571429 8:0.028571429 9:0.028571429 10:0 11:0.057142857 12:0.11428571 13:0 14:0 15:0 16:0.17142857 17:0 18:0 19:0.057142857 20:0 
1 1:0.095238095 2:0.071428571 3:0 4:0.023809524 5:0 6:0 7:0 8:0.071428571 9:0.23809524 10:0.11904762 11:0 12:0.16666667 13:0 14:0.023809524 15:0.16666667 16:0 17:0.023809524 18:0 19:0 20:0 
1 1:0.11111111 2:0.14814815 3:0.074074074 4:0.074074074 5:0 6:0 7:0 8:0.074074074 9:0.11111111 10:0.037037037 11:0.11111111 12:0.14814815 13:0 14:0 15:0.037037037 16:0.037037037 17:0 18:0 19:0.037037037 20:0 
1 1:0.18181818 2:0.03030303 3:0.03030303 4:0.060606061 5:0.03030303 6:0 7:0.03030303 8:0.03030303 9:0.21212121 10:0.03030303 11:0.060606061 12:0.03030303 13:0.090909091 14:0.03030303 15:0.03030303 16:0.03030303 17:0 18:0.060606061 19:0 20:0.03030303 
1 1:0.14705882 2:0.088235294 3:0 4:0.029411765 5:0.11764706 6:0 7:0.029411765 8:0.058823529 9:0.14705882 10:0 11:0.11764706 12:0.029411765 13:0 14:0 15:0.029411765 16:0.14705882 17:0 18:0.058823529 19:0 20:0 
1 1:0.14705882 2:0.088235294 3:0 4:0.029411765 5:0.11764706 6:0 7:0.029411765 8:0.058823529 9:0.14705882 10:0 11:0.11764706 12:0.029411765 13:0 14:0 15:0.029411765 16:0.14705882 17:0 18:0.058823529 19:0 20:0 
1 1:0.11764706 2:0.088235294 3:0.14705882 4:0.058823529 5:0.058823529 6:0 7:0 8:0.058823529 9:0.058823529 10:0.058823529 11:0.088235294 12:0.058823529 13:0.029411765 14:0 15:0 16:0.088235294 17:0.029411765 18:0.029411765 19:0.029411765 20:0 
1 1:0.1025641 2:0 3:0.076923077 4:0.051282051 5:0.051282051 6:0 7:0.025641026 8:0.1025641 9:0.15384615 10:0 11:0.1025641 12:0.051282051 13:0.025641026 14:0.051282051 15:0.025641026 16:0.076923077 17:0.025641026 18:0.051282051 19:0.025641026 20:0 
1 1:0.14285714 2:0.095238095 3:0 4:0.023809524 5:0 6:0 7:0.023809524 8:0.095238095 9:0.16666667 10:0 11:0.047619048 12:0.14285714 13:0 14:0.023809524 15:0.071428571 16:0.071428571 17:0.023809524 18:0 19:0.047619048 20:0.023809524 
1 1:0.11904762 2:0.071428571 3:0 4:0.023809524 5:0.023809524 6:0 7:0.023809524 8:0.071428571 9:0.21428571 10:0 11:0.047619048 12:0.095238095 13:0 14:0 15:0.047619048 16:0.11904762 17:0.047619048 18:0.023809524 19:0.047619048 20:0.023809524 
1 1:0.13953488 2:0.11627907 3:0 4:0.023255814 5:0 6:0.023255814 7:0.023255814 8:0.069767442 9:0.1627907 10:0 11:0.069767442 12:0.069767442 13:0 14:0.023255814 15:0.046511628 16:0.093023256 17:0 18:0.046511628 19:0.093023256 20:0 
1 1:0.13953488 2:0.093023256 3:0.023255814 4:0.023255814 5:0 6:0 7:0.023255814 8:0.069767442 9:0.13953488 10:0 11:0.093023256 12:0.069767442 13:0 14:0.023255814 15:0.069767442 16:0.093023256 17:0 18:0.023255814 19:0.11627907 20:0 
1 1:0.060606061 2:0.12121212 3:0 4:0.03030303 5:0.060606061 6:0 7:0 8:0.12121212 9:0.24242424 10:0.03030303 11:0.060606061 12:0.060606061 13:0 14:0 15:0.090909091 16:0 17:0.03030303 18:0 19:0.03030303 20:0.060606061 
1 1:0.095238095 2:0.14285714 3:0 4:0.023809524 5:0 6:0 7:0.023809524 8:0.071428571 9:0.095238095 10:0.023809524 11:0.071428571 12:0.16666667 13:0 14:0 15:0.023809524 16:0.11904762 17:0 18:0.023809524 19:0.071428571 20:0.047619048 
1 1:0.095238095 2:0.095238095 3:0 4:0.023809524 5:0.023809524 6:0 7:0.023809524 8:0.071428571 9:0.16666667 10:0 11:0.047619048 12:0.11904762 13:0 14:0 15:0.071428571 16:0.095238095 17:0.071428571 18:0.047619048 19:0.047619048 20:0 
1 1:0.057142857 2:0.057142857 3:0.11428571 4:0.057142857 5:0.028571429 6:0 7:0.028571429 8:0.085714286 9:0.28571429 10:0.11428571 11:0.028571429 12:0.028571429 13:0.028571429 14:0 15:0.057142857 16:0.028571429 17:0 18:0 19:0 20:0 
1 1:0.2 2:0.057142857 3:0.085714286 4:0.028571429 5:0.028571429 6:0 7:0 8:0.085714286 9:0.22857143 10:0.057142857 11:0.057142857 12:0.028571429 13:0 14:0 15:0.057142857 16:0.028571429 17:0.028571429 18:0 19:0.028571429 20:0 
1 1:0.1 2:0.1 3:0.0625 4:0.0375 5:0.05 6:0 7:0.0375 8:0.0625 9:0.1 10:0.0125 11:0.175 12:0.0625 13:0.025 14:0 15:0.025 16:0.025 17:0.025 18:0.025 19:0.05 20:0.025 
1 1:0.109375 2:0.140625 3:0.078125 4:0.0625 5:0.0625 6:0 7:0.03125 8:0.046875 9:0.109375 10:0 11:0.171875 12:0.046875 13:0.03125 14:0 15:0.015625 16:0.03125 17:0.015625 18:0.015625 19:0.03125 20:0 
1 1:0.032258065 2:0.12903226 3:0.032258065 4:0.032258065 5:0.064516129 6:0 7:0 8:0.064516129 9:0.19354839 10:0 11:0.096774194 12:0.12903226 13:0 14:0 15:0 16:0.064516129 17:0 18:0.032258065 19:0.12903226 20:0 
1 1:0.088235294 2:0.17647059 3:0.058823529 4:0.029411765 5:0 6:0 7:0 8:0.11764706 9:0.20588235 10:0.029411765 11:0.029411765 12:0.029411765 13:0 14:0 15:0.029411765 16:0.11764706 17:0.058823529 18:0.029411765 19:0 20:0 
1 1:0.088235294 2:0.17647059 3:0.058823529 4:0.029411765 5:0 6:0 7:0 8:0.11764706 9:0.20588235 10:0.029411765 11:0.029411765 12:0.029411765 13:0 14:0 15:0.029411765 16:0.11764706 17:0.058823529 18:0.029411765 19:0 20:0 
1 1:0.11111111 2:0.11111111 3:0.14814815 4:0.074074074 5:0.14814815 6:0.037037037 7:0 8:0.037037037 9:0.037037037 10:0.037037037 11:0.037037037 12:0 13:0 14:0 15:0 16:0.074074074 17:0.037037037 18:0.037037037 19:0.037037037 20:0.037037037 
1 1:0.15384615 2:0.051282051 3:0.025641026 4:0.025641026 5:0.051282051 6:0 7:0.025641026 8:0.1025641 9:0.12820513 10:0 11:0.076923077 12:0.076923077 13:0.025641026 14:0 15:0.025641026 16:0.17948718 17:0.025641026 18:0 19:0 20:0.025641026 
1 1:0.1 2:0.16666667 3:0.1 4:0.066666667 5:0 6:0 7:0 8:0.033333333 9:0.066666667 10:0.033333333 11:0.1 12:0.066666667 13:0 14:0 15:0.033333333 16:0.1 17:0.033333333 18:0.066666667 19:0.033333333 20:0 
1 1:0.10714286 2:0.17857143 3:0.035714286 4:0.035714286 5:0.035714286 6:0 7:0.035714286 8:0.25 9:0.035714286 10:0 11:0.10714286 12:0 13:0 14:0 15:0 16:0.10714286 17:0.035714286 18:0 19:0 20:0.035714286 
1 1:0.071428571 2:0.21428571 3:0 4:0.035714286 5:0 6:0 7:0.035714286 8:0.21428571 9:0.10714286 10:0 11:0.10714286 12:0.035714286 13:0 14:0 15:0 16:0.10714286 17:0.035714286 18:0.035714286 19:0 20:0 
1 1:0.074074074 2:0.18518519 3:0.037037037 4:0.074074074 5:0 6:0.037037037 7:0.037037037 8:0.11111111 9:0.074074074 10:0 11:0.074074074 12:0.074074074 13:0.074074074 14:0 15:0 16:0.11111111 17:0 18:0 19:0.037037037 20:0 
1 1:0.09375 2:0.125 3:0.125 4:0.03125 5:0.125 6:0 7:0 8:0 9:0.09375 10:0 11:0.0625 12:0.0625 13:0.03125 14:0.03125 15:0.03125 16:0.125 17:0 18:0 19:0.03125 20:0.03125 
1 1:0.09375 2:0.125 3:0.125 4:0.03125 5:0.125 6:0 7:0 8:0 9:0.09375 10:0 11:0.0625 12:0.0625 13:0.03125 14:0.03125 15:0.03125 16:0.125 17:0 18:0 19:0.03125 20:0.03125 
1 1:0.12 2:0.12 3:0.12 4:0.12 5:0.04 6:0 7:0 8:0.04 9:0.2 10:0.04 11:0.04 12:0 13:0 14:0 15:0.04 16:0.04 17:0 18:0.04 19:0.04 20:0 
1 1:0.060606061 2:0.12121212 3:0.060606061 4:0.03030303 5:0.060606061 6:0 7:0 8:0.03030303 9:0.15151515 10:0.090909091 11:0.21212121 12:0 13:0 14:0 15:0 16:0.12121212 17:0.03030303 18:0.03030303 19:0 20:0 
1 1:0.1025641 2:0.076923077 3:0.025641026 4:0.025641026 5:0 6:0 7:0 8:0.025641026 9:0.28205128 10:0.025641026 11:0.051282051 12:0.1025641 13:0 14:0 15:0.15384615 16:0.025641026 17:0 18:0.025641026 19:0.076923077 20:0 
1 1:0.066666667 2:0.1 3:0.066666667 4:0.033333333 5:0.066666667 6:0 7:0 8:0.066666667 9:0.2 10:0 11:0 12:0.16666667 13:0 14:0 15:0 16:0.13333333 17:0.066666667 18:0 19:0.033333333 20:0 
1 1:0.11428571 2:0.057142857 3:0.057142857 4:0.085714286 5:0.028571429 6:0.028571429 7:0.028571429 8:0.085714286 9:0.057142857 10:0 11:0.057142857 12:0.14285714 13:0 14:0 15:0.028571429 16:0.17142857 17:0.028571429 18:0.028571429 19:0 20:0 
1 1:0 2:0.15625 3:0.09375 4:0.0625 5:0.03125 6:0 7:0 8:0 9:0.125 10:0.03125 11:0.09375 12:0.03125 13:0 14:0 15:0.03125 16:0.15625 17:0.0625 18:0 19:0.0625 20:0.0625 
1 1:0.15384615 2:0.051282051 3:0.025641026 4:0.025641026 5:0.051282051 6:0 7:0.025641026 8:0.1025641 9:0.12820513 10:0 11:0.076923077 12:0.076923077 13:0.025641026 14:0 15:0.025641026 16:0.17948718 17:0.025641026 18:0 19:0 20:0.025641026 
1 1:0.16129032 2:0.12903226 3:0.032258065 4:0.064516129 5:0.12903226 6:0 7:0 8:0.032258065 9:0.032258065 10:0 11:0.032258065 12:0.064516129 13:0 14:0 15:0 16:0.12903226 17:0.064516129 18:0.064516129 19:0.064516129 20:0 
1 1:0.071428571 2:0.25 3:0.035714286 4:0.035714286 5:0.071428571 6:0 7:0 8:0.10714286 9:0.10714286 10:0.035714286 11:0.035714286 12:0 13:0 14:0 15:0.035714286 16:0.10714286 17:0 18:0 19:0.071428571 20:0.035714286 
1 1:0.071428571 2:0.035714286 3:0.28571429 4:0.035714286 5:0.071428571 6:0 7:0.071428571 8:0 9:0 10:0 11:0.071428571 12:0.10714286 13:0 14:0.035714286 15:0 16:0.10714286 17:0.035714286 18:0 19:0.035714286 20:0.035714286 
1 1:0.03125 2:0.0625 3:0 4:0.03125 5:0 6:0 7:0 8:0.125 9:0.21875 10:0.21875 11:0.15625 12:0.03125 13:0 14:0 15:0.0625 16:0 17:0 18:0 19:0.03125 20:0.03125 
1 1:0.1025641 2:0.076923077 3:0.025641026 4:0.025641026 5:0.076923077 6:0 7:0.025641026 8:0.076923077 9:0.17948718 10:0 11:0.025641026 12:0.051282051 13:0.025641026 14:0 15:0.025641026 16:0.17948718 17:0 18:0.025641026 19:0.025641026 20:0.051282051 
1 1:0.037037037 2:0.11111111 3:0.11111111 4:0.037037037 5:0.037037037 6:0.037037037 7:0 8:0.037037037 9:0.18518519 10:0 11:0.11111111 12:0.037037037 13:0 14:0 15:0 16:0.11111111 17:0.037037037 18:0 19:0.037037037 20:0.074074074 
1 1:0.037037037 2:0.11111111 3:0.11111111 4:0.037037037 5:0.037037037 6:0.037037037 7:0 8:0.037037037 9:0.18518519 10:0 11:0.11111111 12:0.037037037 13:0 14:0 15:0 16:0.11111111 17:0.037037037 18:0 19:0.037037037 20:0.074074074 
1 1:0.074074074 2:0.14814815 3:0.037037037 4:0.074074074 5:0.14814815 6:0 7:0.037037037 8:0.074074074 9:0.11111111 10:0 11:0.074074074 12:0.074074074 13:0 14:0 15:0 16:0.037037037 17:0.037037037 18:0 19:0.074074074 20:0 
1 1:0.11111111 2:0.14814815 3:0.11111111 4:0.037037037 5:0.074074074 6:0 7:0.037037037 8:0.074074074 9:0.11111111 10:0 11:0.074074074 12:0.074074074 13:0 14:0 15:0 16:0.074074074 17:0.037037037 18:0 19:0.037037037 20:0 
1 1:0.074074074 2:0.14814815 3:0.037037037 4:0.074074074 5:0.14814815 6:0 7:0.037037037 8:0.074074074 9:0.11111111 10:0 11:0.074074074 12:0.074074074 13:0 14:0 15:0 16:0.037037037 17:0.037037037 18:0 19:0.074074074 20:0 
1 1:0.096774194 2:0.12903226 3:0.064516129 4:0.032258065 5:0.032258065 6:0 7:0 8:0.064516129 9:0.096774194 10:0.032258065 11:0.19354839 12:0.064516129 13:0 14:0 15:0.064516129 16:0.096774194 17:0 18:0 19:0.032258065 20:0 
1 1:0.034482759 2:0.10344828 3:0.13793103 4:0.068965517 5:0.10344828 6:0 7:0 8:0 9:0.10344828 10:0.034482759 11:0.13793103 12:0.034482759 13:0.034482759 14:0 15:0.034482759 16:0.13793103 17:0.034482759 18:0 19:0 20:0 
1 1:0.076923077 2:0.15384615 3:0.15384615 4:0.076923077 5:0.038461538 6:0 7:0 8:0 9:0.076923077 10:0.038461538 11:0.038461538 12:0.076923077 13:0 14:0 15:0 16:0.11538462 17:0.076923077 18:0.038461538 19:0 20:0.038461538 
1 1:0.076923077 2:0.15384615 3:0.11538462 4:0.076923077 5:0.076923077 6:0 7:0 8:0.038461538 9:0.038461538 10:0.076923077 11:0.076923077 12:0.038461538 13:0 14:0 15:0.038461538 16:0.038461538 17:0.076923077 18:0.038461538 19:0 20:0.038461538 
1 1:0.058823529 2:0.11764706 3:0.058823529 4:0.029411765 5:0.029411765 6:0 7:0.029411765 8:0.058823529 9:0.14705882 10:0 11:0.088235294 12:0.088235294 13:0 14:0 15:0.029411765 16:0.11764706 17:0 18:0.029411765 19:0.11764706 20:0 
1 1:0 2:0.11538462 3:0.038461538 4:0.11538462 5:0.076923077 6:0.038461538 7:0 8:0.15384615 9:0.23076923 10:0.038461538 11:0.038461538 12:0 13:0 14:0 15:0.038461538 16:0.076923077 17:0 18:0 19:0.038461538 20:0 
1 1:0.048780488 2:0.14634146 3:0.073170732 4:0.048780488 5:0.073170732 6:0 7:0 8:0 9:0.097560976 10:0.073170732 11:0.097560976 12:0.12195122 13:0 14:0 15:0 16:0.097560976 17:0.024390244 18:0 19:0.073170732 20:0.024390244 
1 1:0.071428571 2:0.10714286 3:0.14285714 4:0.071428571 5:0 6:0 7:0.035714286 8:0.035714286 9:0.17857143 10:0.035714286 11:0.14285714 12:0.035714286 13:0 14:0 15:0 16:0.10714286 17:0 18:0 19:0 20:0.035714286 
1 1:0.13333333 2:0.2 3:0.066666667 4:0.066666667 5:0.033333333 6:0.033333333 7:0 8:0.033333333 9:0.066666667 10:0 11:0.066666667 12:0.066666667 13:0 14:0 15:0.033333333 16:0.16666667 17:0 18:0 19:0 20:0.033333333 
1 1:0.071428571 2:0.25 3:0.071428571 4:0.071428571 5:0.035714286 6:0 7:0 8:0.035714286 9:0.10714286 10:0.035714286 11:0 12:0.071428571 13:0.035714286 14:0.035714286 15:0.10714286 16:0.035714286 17:0 18:0 19:0.035714286 20:0 
1 1:0.10344828 2:0.13793103 3:0.10344828 4:0.034482759 5:0.068965517 6:0 7:0 8:0.17241379 9:0.17241379 10:0.034482759 11:0.034482759 12:0.034482759 13:0 14:0 15:0.034482759 16:0.034482759 17:0 18:0 19:0.034482759 20:0 
1 1:0.13793103 2:0.13793103 3:0.068965517 4:0.068965517 5:0.068965517 6:0 7:0 8:0 9:0.13793103 10:0 11:0.034482759 12:0.17241379 13:0 14:0 15:0.068965517 16:0.034482759 17:0 18:0 19:0.034482759 20:0.034482759 
1 1:0.11904762 2:0.14285714 3:0.047619048 4:0.023809524 5:0 6:0 7:0.023809524 8:0.11904762 9:0.21428571 10:0.071428571 11:0.071428571 12:0.047619048 13:0 14:0.023809524 15:0.095238095 16:0 17:0 18:0 19:0 20:0 
1 1:0.097560976 2:0.17073171 3:0 4:0.048780488 5:0 6:0.024390244 7:0 8:0.048780488 9:0.14634146 10:0.097560976 11:0.048780488 12:0.048780488 13:0 14:0 15:0.17073171 16:0 17:0.048780488 18:0 19:0.024390244 20:0.024390244 
1 1:0 2:0.14 3:0.02 4:0.04 5:0.02 6:0 7:0 8:0.16 9:0.16 10:0.06 11:0.06 12:0.08 13:0 14:0.02 15:0.06 16:0.02 17:0.1 18:0 19:0.02 20:0.04 
-1 1:0.082706767 2:0.056390977 3:0.078947368 4:0.030075188 5:0.033834586 6:0.007518797 7:0.041353383 8:0.097744361 9:0.071428571 10:0.063909774 11:0.045112782 12:0.060150376 13:0.015037594 14:0.022556391 15:0.045112782 16:0.056390977 17:0.030075188 18:0.056390977 19:0.045112782 20:0.060150376 
-1 1:0.09114249 2:0.10911425 3:0.0436457 4:0.020539153 5:0.011553273 6:0.0077021823 7:0.019255456 8:0.088575096 9:0.12708601 10:0.051347882 11:0.039794608 12:0.055198973 13:0 14:0.015404365 15:0.07830552 16:0.035943517 17:0.032092426 18:0.070603338 19:0.017971759 20:0.084724005 
-1 1:0.081534772 2:0.086330935 3:0.055155875 4:0.023980815 5:0.03117506 6:0.0023980815 7:0.016786571 8:0.067146283 9:0.088729017 10:0.047961631 11:0.06235012 12:0.052757794 13:0 14:0.0047961631 15:0.045563549 16:0.081534772 17:0.067146283 18:0.11510791 19:0.026378897 20:0.043165468 
-1 1:0.090206186 2:0.069587629 3:0.041237113 4:0.030927835 5:0.030927835 6:0.0051546392 7:0.010309278 8:0.097938144 9:0.15721649 10:0.025773196 11:0.06443299 12:0.085051546 13:0.015463918 14:0.0025773196 15:0.030927835 16:0.033505155 17:0.030927835 18:0.046391753 19:0.054123711 20:0.077319588 
-1 1:0.098330241 2:0.077922078 3:0.070500928 4:0.031539889 5:0.016697588 6:0.0018552876 7:0.012987013 8:0.085343228 9:0.11131725 10:0.027829314 11:0.038961039 12:0.063079777 13:0 14:0.0074211503 15:0.037105751 16:0.063079777 17:0.040816327 18:0.10018553 19:0.051948052 20:0.063079777 
-1 1:0.070381232 2:0.085043988 3:0.08797654 4:0.023460411 5:0.032258065 6:0 7:0.035190616 8:0.064516129 9:0.06744868 10:0.046920821 11:0.04398827 12:0.064516129 13:0.0029325513 14:0.014662757 15:0.049853372 16:0.082111437 17:0.041055718 18:0.085043988 19:0.052785924 20:0.049853372 
-1 1:0.047619048 2:0.11309524 3:0.050595238 4:0.023809524 5:0.032738095 6:0.026785714 7:0.026785714 8:0.06547619 9:0.068452381 10:0.050595238 11:0.074404762 12:0.035714286 13:0.0089285714 14:0.032738095 15:0.050595238 16:0.068452381 17:0.047619048 18:0.089285714 19:0.023809524 20:0.0625 
-1 1:0.061594203 2:0.050724638 3:0.057971014 4:0.02173913 5:0.032608696 6:0.014492754 7:0.010869565 8:0.13043478 9:0.16304348 10:0.036231884 11:0.072463768 12:0.028985507 13:0 14:0.02173913 15:0.076086957 16:0.028985507 17:0.050724638 18:0.083333333 19:0.0036231884 20:0.054347826 
-1 1:0.062780269 2:0.098654709 3:0.065022422 4:0.0089686099 5:0.091928251 6:0.01793722 7:0.024663677 8:0.038116592 9:0.056053812 10:0.033632287 11:0.049327354 12:0.035874439 13:0.015695067 14:0.01793722 15:0.047085202 16:0.085201794 17:0.058295964 18:0.078475336 19:0.067264574 20:0.047085202 
-1 1:0.083123426 2:0.090680101 3:0.080604534 4:0.027707809 5:0.037783375 6:0.0025188917 7:0.025188917 8:0.088161209 9:0.090680101 10:0.050377834 11:0.057934509 12:0.042821159 13:0.0025188917 14:0.032745592 15:0.047858942 16:0.032745592 17:0.020151134 18:0.068010076 19:0.052896725 20:0.065491184 
-1 1:0.094609461 2:0.084708471 3:0.052805281 4:0.01980198 5:0.03960396 6:0.0088008801 7:0.03410341 8:0.091309131 9:0.075907591 10:0.052805281 11:0.04620462 12:0.066006601 13:0.0066006601 14:0.01320132 15:0.03520352 16:0.067106711 17:0.02640264 18:0.075907591 19:0.051705171 20:0.057205721 
-1 1:0.070393375 2:0.11594203 3:0.053830228 4:0.0062111801 5:0.057971014 6:0.01863354 7:0.037267081 8:0.041407867 9:0.066252588 10:0.043478261 11:0.047619048 12:0.060041408 13:0.020703934 14:0.01242236 15:0.033126294 16:0.070393375 17:0.10351967 18:0.051759834 19:0.051759834 20:0.037267081 
-1 1:0.048148148 2:0.088888889 3:0.040740741 4:0.033333333 5:0.011111111 6:0.0037037037 7:0.014814815 8:0.048148148 9:0.18148148 10:0.02962963 11:0.059259259 12:0.051851852 13:0 14:0.014814815 15:0.059259259 16:0.048148148 17:0.11111111 18:0.088888889 19:0.033333333 20:0.033333333 
-1 1:0.073286052 2:0.06855792 3:0.085106383 4:0.016548463 5:0.035460993 6:0.014184397 7:0.035460993 8:0.087470449 9:0.09929078 10:0.040189125 11:0.044917258 12:0.054373522 13:0.0047281324 14:0.011820331 15:0.033096927 16:0.075650118 17:0.023640662 18:0.094562648 19:0.052009456 20:0.04964539 
-1 1:0.094151213 2:0.069900143 3:0.058487874 4:0.027104137 5:0.032810271 6:0.0057061341 7:0.034236805 8:0.079885877 9:0.088445078 10:0.044222539 11:0.045649073 12:0.067047076 13:0.002853067 14:0.018544936 15:0.042796006 16:0.065620542 17:0.039942939 18:0.091298146 19:0.02853067 20:0.062767475 
-1 1:0.068181818 2:0.079545455 3:0.056818182 4:0.045454545 5:0.011363636 6:0 7:0.022727273 8:0.090909091 9:0.13636364 10:0.011363636 11:0.079545455 12:0.079545455 13:0 14:0.011363636 15:0.011363636 16:0.079545455 17:0.022727273 18:0.079545455 19:0.056818182 20:0.056818182 
-1 1:0.04040404 2:0.12794613 3:0.060606061 4:0.026936027 5:0.02020202 6:0 7:0.026936027 8:0.080808081 9:0.14141414 10:0.037037037 11:0.04040404 12:0.037037037 13:0.0067340067 14:0.033670034 15:0.060606061 16:0.057239057 17:0.037037037 18:0.080808081 19:0.02020202 20:0.063973064 
-1 1:0.068965517 2:0.08045977 3:0.068965517 4:0.045977011 5:0.022988506 6:0 7:0.011494253 8:0.091954023 9:0.17241379 10:0.011494253 11:0.068965517 12:0.08045977 13:0 14:0.022988506 15:0.011494253 16:0.068965517 17:0.022988506 18:0.057471264 19:0.011494253 20:0.08045977 
-1 1:0.093596059 2:0.1182266 3:0.034482759 4:0.014778325 5:0.02955665 6:0.019704433 7:0.0049261084 8:0.088669951 9:0.16256158 10:0.064039409 11:0.073891626 12:0.064039409 13:0.0049261084 14:0.019704433 15:0.044334975 16:0.0049261084 17:0.034482759 18:0.078817734 19:0.019704433 20:0.024630542 
-1 1:0.069486405 2:0.090634441 3:0.039274924 4:0.048338369 5:0.045317221 6:0.0060422961 7:0.024169184 8:0.066465257 9:0.075528701 10:0.027190332 11:0.054380665 12:0.072507553 13:0.012084592 14:0.03021148 15:0.045317221 16:0.081570997 17:0.012084592 18:0.090634441 19:0.036253776 20:0.072507553 
-1 1:0.12556054 2:0.12107623 3:0.031390135 4:0.0044843049 5:0.01793722 6:0.0089686099 7:0.01793722 8:0.11659193 9:0.16591928 10:0.031390135 11:0.049327354 12:0.044843049 13:0.0044843049 14:0.0089686099 15:0.10762332 16:0.022421525 17:0.0044843049 18:0.049327354 19:0.0089686099 20:0.058295964 
-1 1:0.045929019 2:0.10229645 3:0.070981211 4:0.03131524 5:0.039665971 6:0.006263048 7:0.043841336 8:0.052192067 9:0.060542797 10:0.043841336 11:0.070981211 12:0.052192067 13:0.006263048 14:0.025052192 15:0.064718163 16:0.064718163 17:0.064718163 18:0.083507307 19:0.020876827 20:0.050104384 
-1 1:0.051396648 2:0.10726257 3:0.083798883 4:0.0089385475 5:0.061452514 6:0.023463687 7:0.03575419 8:0.036871508 9:0.03575419 10:0.029050279 11:0.068156425 12:0.043575419 13:0.018994413 14:0.02122905 15:0.024581006 16:0.11843575 17:0.043575419 18:0.049162011 19:0.087150838 20:0.051396648 
-1 1:0.047732697 2:0.10501193 3:0.066825776 4:0.011933174 5:0.045346062 6:0.014319809 7:0.033412888 8:0.085918854 9:0.085918854 10:0.026252983 11:0.045346062 12:0.062052506 13:0.0047732697 14:0.014319809 15:0.069212411 16:0.062052506 17:0.040572792 18:0.093078759 19:0.031026253 20:0.054892601 
-1 1:0.072222222 2:0.13333333 3:0.066666667 4:0.016666667 5:0.061111111 6:0 7:0.027777778 8:0.05 9:0.1 10:0.038888889 11:0.038888889 12:0.05 13:0.016666667 14:0.011111111 15:0.027777778 16:0.077777778 17:0.066666667 18:0.038888889 19:0.066666667 20:0.038888889 
-1 1:0.093059937 2:0.13249211 3:0.042586751 4:0.012618297 5:0.028391167 6:0.012618297 7:0.022082019 8:0.08044164 9:0.085173502 10:0.045741325 11:0.048895899 12:0.052050473 13:0 14:0.018927445 15:0.089905363 16:0.041009464 17:0.039432177 18:0.09148265 19:0.017350158 20:0.045741325 
-1 1:0.12371134 2:0.092783505 3:0.082474227 4:0.030927835 5:0.020618557 6:0.010309278 7:0.010309278 8:0.06185567 9:0.10309278 10:0.010309278 11:0.051546392 12:0.072164948 13:0 14:0 15:0.020618557 16:0.092783505 17:0.041237113 18:0.06185567 19:0.020618557 20:0.092783505 
-1 1:0.041322314 2:0.10743802 3:0.095041322 4:0.0061983471 5:0.064049587 6:0.010330579 7:0.039256198 8:0.049586777 9:0.064049587 10:0.026859504 11:0.04338843 12:0.047520661 13:0.0061983471 14:0.026859504 15:0.039256198 16:0.092975207 17:0.047520661 18:0.064049587 19:0.080578512 20:0.047520661 
-1 1:0.066666667 2:0.077777778 3:0.088888889 4:0.055555556 5:0.033333333 6:0 7:0.044444444 8:0.055555556 9:0.011111111 10:0.022222222 11:0.044444444 12:0.066666667 13:0 14:0.033333333 15:0.033333333 16:0.15555556 17:0.033333333 18:0.077777778 19:0.055555556 20:0.044444444 
-1 1:0.074450085 2:0.085448393 3:0.077834179 4:0.030456853 5:0.028764805 6:0.0050761421 7:0.025380711 8:0.079526227 9:0.063451777 10:0.039763113 11:0.055837563 12:0.049915398 13:0.011844332 14:0.013536379 15:0.060913706 16:0.087986464 17:0.026226734 18:0.084602369 19:0.038071066 20:0.060913706 
-1 1:0.03960396 2:0.089108911 3:0.044554455 4:0.024752475 5:0.04950495 6:0.02970297 7:0.059405941 8:0.074257426 9:0.089108911 10:0.02970297 11:0.064356436 12:0.04950495 13:0.0099009901 14:0.034653465 15:0.059405941 16:0.04950495 17:0.024752475 18:0.069306931 19:0.044554455 20:0.064356436 
-1 1:0.051569507 2:0.089686099 3:0.089686099 4:0.01793722 5:0.047085202 6:0.0089686099 7:0.024663677 8:0.038116592 9:0.076233184 10:0.044843049 11:0.060538117 12:0.053811659 13:0 14:0.029147982 15:0.044843049 16:0.085201794 17:0.044843049 18:0.080717489 19:0.047085202 20:0.065022422 
-1 1:0.056818182 2:0.068181818 3:0.10227273 4:0.045454545 5:0.011363636 6:0 7:0.034090909 8:0.079545455 9:0.090909091 10:0.011363636 11:0.079545455 12:0.079545455 13:0 14:0.011363636 15:0.011363636 16:0.068181818 17:0.056818182 18:0.079545455 19:0.022727273 20:0.090909091 
-1 1:0.10135135 2:0.084459459 3:0.077702703 4:0.027027027 5:0.033783784 6:0.0033783784 7:0.0067567568 8:0.060810811 9:0.074324324 10:0.023648649 11:0.043918919 12:0.060810811 13:0.0033783784 14:0.013513514 15:0.037162162 16:0.097972973 17:0.033783784 18:0.087837838 19:0.057432432 20:0.070945946 
-1 1:0.04109589 2:0.084474886 3:0.047945205 4:0.029680365 5:0.075342466 6:0.011415525 7:0.047945205 8:0.068493151 9:0.091324201 10:0.04109589 11:0.029680365 12:0.050228311 13:0.00456621 14:0.02739726 15:0.03652968 16:0.082191781 17:0.025114155 18:0.082191781 19:0.057077626 20:0.066210046 
-1 1:0.1021021 2:0.084084084 3:0.096096096 4:0.039039039 5:0.021021021 6:0 7:0.009009009 8:0.09009009 9:0.084084084 10:0.042042042 11:0.048048048 12:0.045045045 13:0.009009009 14:0.012012012 15:0.048048048 16:0.078078078 17:0.015015015 18:0.081081081 19:0.039039039 20:0.057057057 
-1 1:0.092592593 2:0.069444444 3:0.10648148 4:0.013888889 5:0.032407407 6:0.0046296296 7:0.032407407 8:0.10185185 9:0.055555556 10:0.032407407 11:0.032407407 12:0.060185185 13:0.0046296296 14:0.037037037 15:0.060185185 16:0.069444444 17:0.037037037 18:0.050925926 19:0.050925926 20:0.055555556 
-1 1:0.062966916 2:0.090715048 3:0.059765208 4:0.014941302 5:0.045891142 6:0.010672359 7:0.033084312 8:0.064034152 9:0.072572038 10:0.050160085 11:0.080042689 12:0.04909285 13:0.0042689434 14:0.029882604 15:0.050160085 16:0.064034152 17:0.040554963 18:0.088580576 19:0.042689434 20:0.045891142 
-1 1:0.071428571 2:0.10591133 3:0.061576355 4:0.014778325 5:0.051724138 6:0.0073891626 7:0.039408867 8:0.073891626 9:0.083743842 10:0.036945813 11:0.066502463 12:0.056650246 13:0.017241379 14:0.022167488 15:0.027093596 16:0.078817734 17:0.051724138 18:0.034482759 19:0.061576355 20:0.036945813 
-1 1:0.08 2:0.10857143 3:0.091428571 4:0.011428571 5:0.062857143 6:0.0057142857 7:0.028571429 8:0.08 9:0.051428571 10:0.034285714 11:0.057142857 12:0.011428571 13:0.022857143 14:0.022857143 15:0.028571429 16:0.091428571 17:0.051428571 18:0.045714286 19:0.028571429 20:0.085714286 
-1 1:0.08 2:0.091428571 3:0.11428571 4:0.017142857 5:0.068571429 6:0.0057142857 7:0.022857143 8:0.062857143 9:0.034285714 10:0.045714286 11:0.062857143 12:0.011428571 13:0.022857143 14:0.022857143 15:0.017142857 16:0.11428571 17:0.034285714 18:0.034285714 19:0.051428571 20:0.085714286 
-1 1:0.094637224 2:0.075709779 3:0.066246057 4:0.0094637224 5:0.018927445 6:0.018927445 7:0.022082019 8:0.14826498 9:0.12933754 10:0.047318612 11:0.034700315 12:0.034700315 13:0.015772871 14:0.018927445 15:0.063091483 16:0.03785489 17:0.022082019 18:0.056782334 19:0.031545741 20:0.05362776 
-1 1:0.074725275 2:0.1032967 3:0.072527473 4:0.030769231 5:0.041758242 6:0.0043956044 7:0.017582418 8:0.050549451 9:0.09010989 10:0.021978022 11:0.072527473 12:0.046153846 13:0.0043956044 14:0.01978022 15:0.041758242 16:0.083516484 17:0.037362637 18:0.10549451 19:0.035164835 20:0.046153846 
-1 1:0.099009901 2:0.11881188 3:0.064356436 4:0.0099009901 5:0.024752475 6:0.004950495 7:0.044554455 8:0.069306931 9:0.064356436 10:0.03960396 11:0.089108911 12:0.069306931 13:0.004950495 14:0.014851485 15:0.069306931 16:0.01980198 17:0.03960396 18:0.044554455 19:0.024752475 20:0.084158416 
-1 1:0.086956522 2:0.079051383 3:0.061264822 4:0.023715415 5:0.039525692 6:0.0039525692 7:0.049407115 8:0.067193676 9:0.092885375 10:0.061264822 11:0.045454545 12:0.067193676 13:0.0019762846 14:0.027667984 15:0.031620553 16:0.051383399 17:0.04743083 18:0.057312253 19:0.043478261 20:0.061264822 
-1 1:0.029325513 2:0.1085044 3:0.082111437 4:0.020527859 5:0.070381232 6:0.014662757 7:0.020527859 8:0.041055718 9:0.04398827 10:0.023460411 11:0.076246334 12:0.090909091 13:0.017595308 14:0.023460411 15:0.029325513 16:0.085043988 17:0.038123167 18:0.035190616 19:0.079178886 20:0.070381232 
-1 1:0.064189189 2:0.094594595 3:0.064189189 4:0.027027027 5:0.054054054 6:0.02027027 7:0.040540541 8:0.067567568 9:0.10135135 10:0.047297297 11:0.087837838 12:0.030405405 13:0.0033783784 14:0.030405405 15:0.040540541 16:0.037162162 17:0.054054054 18:0.070945946 19:0.02027027 20:0.043918919 
-1 1:0.081521739 2:0.10326087 3:0.076086957 4:0.016304348 5:0.043478261 6:0.0054347826 7:0.02173913 8:0.02173913 9:0.070652174 10:0.043478261 11:0.032608696 12:0.054347826 13:0 14:0.02173913 15:0.043478261 16:0.14130435 17:0.070652174 18:0.059782609 19:0.048913043 20:0.043478261 
-1 1:0.079081633 2:0.071428571 3:0.073979592 4:0.028061224 5:0.025510204 6:0.010204082 7:0.017857143 8:0.10459184 9:0.14540816 10:0.033163265 11:0.045918367 12:0.040816327 13:0.010204082 14:0.010204082 15:0.030612245 16:0.086734694 17:0.025510204 18:0.06377551 19:0.043367347 20:0.053571429 
-1 1:0.096774194 2:0.075268817 3:0.075268817 4:0.029569892 5:0.01344086 6:0.002688172 7:0.040322581 8:0.10215054 9:0.11827957 10:0.045698925 11:0.043010753 12:0.059139785 13:0.0053763441 14:0.02688172 15:0.02688172 16:0.059139785 17:0.040322581 18:0.059139785 19:0.040322581 20:0.040322581 
-1 1:0.061068702 2:0.12977099 3:0.076335878 4:0.015267176 5:0.045801527 6:0 7:0.015267176 8:0.053435115 9:0.13740458 10:0.038167939 11:0.038167939 12:0.038167939 13:0.0076335878 14:0.030534351 15:0.0076335878 16:0.091603053 17:0.030534351 18:0.091603053 19:0.038167939 20:0.053435115 
-1 1:0.049562682 2:0.11661808 3:0.084548105 4:0.026239067 5:0.040816327 6:0.011661808 7:0.037900875 8:0.081632653 9:0.093294461 10:0.043731778 11:0.055393586 12:0.06122449 13:0.017492711 14:0.020408163 15:0.023323615 16:0.043731778 17:0.04664723 18:0.058309038 19:0.040816327 20:0.04664723 
-1 1:0.043636364 2:0.087272727 3:0.061818182 4:0.014545455 5:0.036363636 6:0.025454545 7:0.032727273 8:0.054545455 9:0.090909091 10:0.043636364 11:0.061818182 12:0.087272727 13:0 14:0.018181818 15:0.054545455 16:0.061818182 17:0.029090909 18:0.08 19:0.047272727 20:0.069090909 
-1 1:0.073770492 2:0.1147541 3:0.057377049 4:0.030054645 5:0.024590164 6:0.0054644809 7:0.019125683 8:0.084699454 9:0.1010929 10:0.049180328 11:0.057377049 12:0.040983607 13:0.0054644809 14:0.010928962 15:0.06557377 16:0.051912568 17:0.021857923 18:0.084699454 19:0.038251366 20:0.06284153 
-1 1:0.10546875 2:0.0625 3:0.083984375 4:0.03125 5:0.033203125 6:0.001953125 7:0.01953125 8:0.080078125 9:0.0859375 10:0.04296875 11:0.064453125 12:0.05859375 13:0 14:0.01171875 15:0.03515625 16:0.068359375 17:0.03515625 18:0.041015625 19:0.056640625 20:0.08203125 
-1 1:0.050847458 2:0.099273608 3:0.070217918 4:0.026634383 5:0.065375303 6:0.004842615 7:0.055690073 8:0.046004843 9:0.04842615 10:0.026634383 11:0.079903148 12:0.060532688 13:0.0072639225 14:0.021791768 15:0.03874092 16:0.065375303 17:0.036319613 18:0.070217918 19:0.055690073 20:0.070217918 
-1 1:0.062146893 2:0.14124294 3:0.073446328 4:0.016949153 5:0.056497175 6:0 7:0.028248588 8:0.056497175 9:0.09039548 10:0.039548023 11:0.028248588 12:0.04519774 13:0.02259887 14:0.016949153 15:0.050847458 16:0.079096045 17:0.050847458 18:0.062146893 19:0.028248588 20:0.050847458 
-1 1:0.05 2:0.13333333 3:0.04047619 4:0.019047619 5:0.045238095 6:0.0071428571 7:0.030952381 8:0.045238095 9:0.085714286 10:0.033333333 11:0.038095238 12:0.061904762 13:0.014285714 14:0.014285714 15:0.047619048 16:0.1 17:0.054761905 18:0.085714286 19:0.045238095 20:0.047619048 
-1 1:0.085070892 2:0.097581318 3:0.061718098 4:0.028356964 5:0.029190992 6:0.0058381985 7:0.025020851 8:0.07589658 9:0.068390325 10:0.045037531 11:0.042535446 12:0.056713928 13:0.0091743119 14:0.017514595 15:0.069224354 16:0.074228524 17:0.036697248 18:0.080900751 19:0.039199333 20:0.051709758 
-1 1:0.064596273 2:0.1242236 3:0.083229814 4:0.013664596 5:0.050931677 6:0.0062111801 7:0.029813665 8:0.045962733 9:0.054658385 10:0.033540373 11:0.048447205 12:0.058385093 13:0.0099378882 14:0.019875776 15:0.039751553 16:0.079503106 17:0.047204969 18:0.059627329 19:0.077018634 20:0.053416149 
-1 1:0.050051073 2:0.11440245 3:0.098059244 4:0.0091930541 5:0.039836568 6:0.0010214505 7:0.015321757 8:0.046986721 9:0.058222676 10:0.011235955 11:0.073544433 12:0.051072523 13:0.0010214505 14:0.010214505 15:0.031664964 16:0.10827375 17:0.057201226 18:0.10418795 19:0.070480082 20:0.048008172 
-1 1:0.069609508 2:0.078098472 3:0.052631579 4:0.018675722 5:0.052631579 6:0.013582343 7:0.018675722 8:0.088285229 9:0.11375212 10:0.061120543 11:0.054329372 12:0.0475382 13:0.010186757 14:0.020373514 15:0.081494058 16:0.027164686 17:0.030560272 18:0.079796265 19:0.015280136 20:0.066213922 
-1 1:0.061068702 2:0.083969466 3:0.053435115 4:0.015267176 5:0.038167939 6:0.015267176 7:0.030534351 8:0.015267176 9:0.15267176 10:0.053435115 11:0.053435115 12:0.038167939 13:0.015267176 14:0.045801527 15:0.030534351 16:0.099236641 17:0.045801527 18:0.06870229 19:0.015267176 20:0.06870229 
-1 1:0.06870229 2:0.076335878 3:0.038167939 4:0.015267176 5:0.038167939 6:0.015267176 7:0.030534351 8:0.030534351 9:0.12977099 10:0.061068702 11:0.053435115 12:0.045801527 13:0.015267176 14:0.045801527 15:0.030534351 16:0.10687023 17:0.053435115 18:0.061068702 19:0.015267176 20:0.06870229 
-1 1:0.044117647 2:0.12605042 3:0.12394958 4:0.018907563 5:0.035714286 6:0.006302521 7:0.052521008 8:0.025210084 9:0.021008403 10:0.031512605 11:0.069327731 12:0.056722689 13:0.012605042 14:0.029411765 15:0.031512605 16:0.090336134 17:0.044117647 18:0.06092437 19:0.084033613 20:0.035714286 
-1 1:0.053571429 2:0.080357143 3:0.053571429 4:0.080357143 5:0.035714286 6:0 7:0.017857143 8:0.053571429 9:0.14285714 10:0 11:0.017857143 12:0.071428571 13:0 14:0.026785714 15:0.035714286 16:0.053571429 17:0.071428571 18:0.098214286 19:0.035714286 20:0.071428571 
-1 1:0.074074074 2:0.10123457 3:0.07037037 4:0.019753086 5:0.022222222 6:0.0024691358 7:0.016049383 8:0.074074074 9:0.077777778 10:0.027160494 11:0.058024691 12:0.051851852 13:0.0012345679 14:0.020987654 15:0.071604938 16:0.071604938 17:0.044444444 18:0.097530864 19:0.034567901 20:0.062962963 
-1 1:0.066420664 2:0.10332103 3:0.088560886 4:0.022140221 5:0.033210332 6:0.018450185 7:0.051660517 8:0.066420664 9:0.077490775 10:0.036900369 11:0.044280443 12:0.066420664 13:0.011070111 14:0.029520295 15:0.040590406 16:0.029520295 17:0.051660517 18:0.062730627 19:0.044280443 20:0.055350554 
-1 1:0.08045977 2:0.068965517 3:0.068965517 4:0.030651341 5:0.026819923 6:0.011494253 7:0.01532567 8:0.088122605 9:0.13793103 10:0.034482759 11:0.088122605 12:0.053639847 13:0.011494253 14:0.019157088 15:0.042145594 16:0.049808429 17:0.019157088 18:0.068965517 19:0.038314176 20:0.045977011 
-1 1:0.096875 2:0.078125 3:0.071875 4:0.01875 5:0.0375 6:0.00625 7:0.0375 8:0.09375 9:0.090625 10:0.03125 11:0.046875 12:0.046875 13:0.009375 14:0.03125 15:0.01875 16:0.075 17:0.028125 18:0.06875 19:0.05625 20:0.05625 
-1 1:0.073099415 2:0.070175439 3:0.093567251 4:0.020467836 5:0.032163743 6:0.0058479532 7:0.026315789 8:0.084795322 9:0.090643275 10:0.046783626 11:0.055555556 12:0.043859649 13:0.026315789 14:0.01754386 15:0.046783626 16:0.061403509 17:0.026315789 18:0.090643275 19:0.038011696 20:0.049707602 
-1 1:0.096273292 2:0.077639752 3:0.062111801 4:0.01863354 5:0.034161491 6:0 7:0.055900621 8:0.093167702 9:0.083850932 10:0.034161491 11:0.040372671 12:0.062111801 13:0.01242236 14:0.01863354 15:0.043478261 16:0.065217391 17:0.046583851 18:0.062111801 19:0.02484472 20:0.068322981 
-1 1:0.064705882 2:0.11764706 3:0.11176471 4:0.017647059 5:0.047058824 6:0 7:0.017647059 8:0.088235294 9:0.070588235 10:0.041176471 11:0.041176471 12:0.041176471 13:0 14:0.0058823529 15:0.017647059 16:0.12941176 17:0.029411765 18:0.052941176 19:0.035294118 20:0.070588235 
-1 1:0.082781457 2:0.072847682 3:0.069536424 4:0.052980132 5:0.029801325 6:0 7:0.033112583 8:0.062913907 9:0.11589404 10:0.029801325 11:0.043046358 12:0.046357616 13:0 14:0.01986755 15:0.052980132 16:0.049668874 17:0.029801325 18:0.079470199 19:0.066225166 20:0.062913907 
-1 1:0.064073227 2:0.11899314 3:0.077803204 4:0.016018307 5:0.04576659 6:0.025171625 7:0.032036613 8:0.043478261 9:0.054919908 10:0.034324943 11:0.04805492 12:0.041189931 13:0.011441648 14:0.041189931 15:0.027459954 16:0.09382151 17:0.077803204 18:0.038901602 19:0.057208238 20:0.050343249 
-1 1:0.038461538 2:0.15384615 3:0.048076923 4:0.038461538 5:0.0096153846 6:0 7:0.028846154 8:0.057692308 9:0.15384615 10:0 11:0.038461538 12:0.048076923 13:0.0096153846 14:0.038461538 15:0.038461538 16:0.057692308 17:0.038461538 18:0.096153846 19:0.019230769 20:0.086538462 
-1 1:0 2:0.086956522 3:0.10869565 4:0.02173913 5:0.02173913 6:0.02173913 7:0.043478261 8:0.043478261 9:0.02173913 10:0.065217391 11:0.17391304 12:0.065217391 13:0.043478261 14:0.02173913 15:0.065217391 16:0.065217391 17:0.043478261 18:0.043478261 19:0.02173913 20:0.02173913 
-1 1:0.095454545 2:0.068181818 3:0.1 4:0.013636364 5:0.040909091 6:0 7:0.022727273 8:0.05 9:0.059090909 10:0.013636364 11:0.081818182 12:0.054545455 13:0.027272727 14:0.0090909091 15:0.018181818 16:0.13181818 17:0.018181818 18:0.095454545 19:0.063636364 20:0.036363636 
-1 1:0.073512252 2:0.095682614 3:0.032672112 4:0.0093348891 5:0.038506418 6:0.023337223 7:0.031505251 8:0.060676779 9:0.14585764 10:0.042007001 11:0.049008168 12:0.068844807 13:0.0046674446 14:0.019836639 15:0.063010502 16:0.03033839 17:0.042007001 18:0.075845974 19:0.019836639 20:0.073512252 
-1 1:0.060150376 2:0.097744361 3:0.026315789 4:0.018796992 5:0.022556391 6:0 7:0.011278195 8:0.056390977 9:0.15413534 10:0.033834586 11:0.052631579 12:0.063909774 13:0 14:0.011278195 15:0.067669173 16:0.033834586 17:0.078947368 18:0.11278195 19:0.033834586 20:0.063909774 
-1 1:0.093333333 2:0.15555556 3:0.048888889 4:0.013333333 5:0.0088888889 6:0.0044444444 7:0.013333333 8:0.066666667 9:0.062222222 10:0.048888889 11:0.062222222 12:0.053333333 13:0.0088888889 14:0.0088888889 15:0.12444444 16:0.017777778 17:0.044444444 18:0.057777778 19:0.0088888889 20:0.097777778 
-1 1:0.095975232 2:0.11455108 3:0.052631579 4:0.030959752 5:0.018575851 6:0 7:0.030959752 8:0.083591331 9:0.083591331 10:0.015479876 11:0.055727554 12:0.06501548 13:0.027863777 14:0.034055728 15:0.049535604 16:0.052631579 17:0.040247678 18:0.068111455 19:0.034055728 20:0.046439628 
-1 1:0.073684211 2:0.089473684 3:0.073684211 4:0.035087719 5:0.035087719 6:0.0035087719 7:0.024561404 8:0.061403509 9:0.092982456 10:0.035087719 11:0.059649123 12:0.059649123 13:0.0035087719 14:0.014035088 15:0.038596491 16:0.071929825 17:0.028070175 18:0.1122807 19:0.031578947 20:0.056140351 
-1 1:0.054607509 2:0.10921502 3:0.085324232 4:0.030716724 5:0.034129693 6:0.023890785 7:0.027303754 8:0.051194539 9:0.051194539 10:0.040955631 11:0.044368601 12:0.058020478 13:0.0068259386 14:0.034129693 15:0.034129693 16:0.078498294 17:0.075085324 18:0.085324232 19:0.027303754 20:0.04778157 
-1 1:0.12773723 2:0.058394161 3:0.069343066 4:0.02189781 5:0.025547445 6:0.010948905 7:0.03649635 8:0.098540146 9:0.076642336 10:0.032846715 11:0.054744526 12:0.054744526 13:0.010948905 14:0.010948905 15:0.058394161 16:0.047445255 17:0.040145985 18:0.062043796 19:0.04379562 20:0.058394161 
-1 1:0.088495575 2:0.079646018 3:0.049778761 4:0.019911504 5:0.034292035 6:0.0088495575 7:0.023230088 8:0.10176991 9:0.125 10:0.040929204 11:0.05199115 12:0.05420354 13:0.0033185841 14:0.01880531 15:0.080752212 16:0.025442478 17:0.034292035 18:0.07079646 19:0.028761062 20:0.059734513 
-1 1:0.056356488 2:0.11402359 3:0.055045872 4:0.01965924 5:0.055045872 6:0.020969856 7:0.03931848 8:0.048492792 9:0.068152031 10:0.031454784 11:0.061598952 12:0.053735256 13:0.001310616 14:0.023591088 15:0.038007864 16:0.073394495 17:0.036697248 18:0.070773263 19:0.057667104 20:0.074705111 
-1 1:0.10096154 2:0.12740385 3:0.038461538 4:0.016826923 5:0.028846154 6:0.0024038462 7:0.014423077 8:0.11298077 9:0.10817308 10:0.050480769 11:0.072115385 12:0.050480769 13:0.014423077 14:0.0096153846 15:0.050480769 16:0.038461538 17:0.024038462 18:0.057692308 19:0.016826923 20:0.064903846 
-1 1:0.077399381 2:0.099071207 3:0.07120743 4:0.027863777 5:0.027863777 6:0 7:0.024767802 8:0.083591331 9:0.086687307 10:0.021671827 11:0.061919505 12:0.068111455 13:0.024767802 14:0.030959752 15:0.06501548 16:0.043343653 17:0.040247678 18:0.049535604 19:0.034055728 20:0.061919505 
-1 1:0.081570997 2:0.074018127 3:0.018126888 4:0.016616314 5:0.033232628 6:0.019637462 7:0.024169184 8:0.075528701 9:0.11480363 10:0.087613293 11:0.066465257 12:0.072507553 13:0.012084592 14:0.019637462 15:0.10120846 16:0.02265861 17:0.019637462 18:0.063444109 19:0.02265861 20:0.054380665 
-1 1:0.12099125 2:0.086005831 3:0.021865889 4:0.0087463557 5:0.023323615 6:0.0072886297 7:0.014577259 8:0.11078717 9:0.12536443 10:0.058309038 11:0.026239067 12:0.086005831 13:0.0072886297 14:0.024781341 15:0.10641399 16:0.011661808 17:0.016034985 18:0.06851312 19:0.0087463557 20:0.067055394 
-1 1:0.073113208 2:0.073113208 3:0.075471698 4:0.035377358 5:0.033018868 6:0.011792453 7:0.033018868 8:0.091981132 9:0.080188679 10:0.04009434 11:0.061320755 12:0.058962264 13:0.0094339623 14:0.011792453 15:0.049528302 16:0.063679245 17:0.035377358 18:0.068396226 19:0.044811321 20:0.049528302 
-1 1:0.078034682 2:0.080924855 3:0.040462428 4:0.018786127 5:0.044797688 6:0.01300578 7:0.031791908 8:0.079479769 9:0.10549133 10:0.057803468 11:0.040462428 12:0.053468208 13:0.0057803468 14:0.033236994 15:0.079479769 16:0.034682081 17:0.031791908 18:0.072254335 19:0.018786127 20:0.079479769 
-1 1:0.059866962 2:0.086474501 3:0.055432373 4:0.035476718 5:0.053215078 6:0.0088691796 7:0.024390244 8:0.073170732 9:0.097560976 10:0.053215078 11:0.046563193 12:0.037694013 13:0.0088691796 14:0.037694013 15:0.086474501 16:0.028824834 17:0.035476718 18:0.075388027 19:0.019955654 20:0.075388027 
-1 1:0.06156406 2:0.1014975 3:0.034941764 4:0.019966722 5:0.056572379 6:0.0083194676 7:0.068219634 8:0.039933444 9:0.081530782 10:0.018302829 11:0.06156406 12:0.063227953 13:0 14:0.036605657 15:0.03327787 16:0.056572379 17:0.044925125 18:0.098169717 19:0.056572379 20:0.058236273 
-1 1:0.087628866 2:0.1056701 3:0.038659794 4:0.028350515 5:0.033505155 6:0.0051546392 7:0.023195876 8:0.097938144 9:0.11082474 10:0.051546392 11:0.067010309 12:0.067010309 13:0.0077319588 14:0.030927835 15:0.056701031 16:0.023195876 17:0.030927835 18:0.046391753 19:0.025773196 20:0.06185567 
-1 1:0.05 2:0.14090909 3:0.072727273 4:0.027272727 5:0.040909091 6:0.0045454545 7:0.027272727 8:0.054545455 9:0.063636364 10:0.027272727 11:0.027272727 12:0.068181818 13:0.013636364 14:0.027272727 15:0.086363636 16:0.045454545 17:0.018181818 18:0.086363636 19:0.040909091 20:0.077272727 
-1 1:0.073426573 2:0.097902098 3:0.076923077 4:0.031468531 5:0.031468531 6:0.0017482517 7:0.026223776 8:0.062937063 9:0.094405594 10:0.033216783 11:0.047202797 12:0.052447552 13:0.0052447552 14:0.01048951 15:0.043706294 16:0.059440559 17:0.036713287 18:0.092657343 19:0.052447552 20:0.06993007 
-1 1:0.04886562 2:0.10820244 3:0.09947644 4:0.02443281 5:0.05061082 6:0.0017452007 7:0.02443281 8:0.047120419 9:0.07504363 10:0.020942408 11:0.066317627 12:0.040139616 13:0.0052356021 14:0.013961606 15:0.02617801 16:0.10122164 17:0.04886562 18:0.076788831 19:0.040139616 20:0.080279232 
-1 1:0.11261261 2:0.081081081 3:0.063063063 4:0.031531532 5:0.018018018 6:0.0045045045 7:0.022522523 8:0.09009009 9:0.14414414 10:0.076576577 11:0.045045045 12:0.054054054 13:0.018018018 14:0.027027027 15:0.054054054 16:0.013513514 17:0.036036036 18:0.045045045 19:0.027027027 20:0.036036036 
-1 1:0.084375 2:0.06875 3:0.0625 4:0.028125 5:0.0375 6:0.01875 7:0.046875 8:0.084375 9:0.078125 10:0.046875 11:0.034375 12:0.05625 13:0.015625 14:0.021875 15:0.034375 16:0.08125 17:0.028125 18:0.046875 19:0.028125 20:0.096875 
-1 1:0.034364261 2:0.15120275 3:0.072164948 4:0.020618557 5:0.068728522 6:0 7:0.037800687 8:0.027491409 9:0.037800687 10:0.024054983 11:0.089347079 12:0.027491409 13:0.0034364261 14:0.037800687 15:0.030927835 16:0.085910653 17:0.030927835 18:0.089347079 19:0.075601375 20:0.054982818 
-1 1:0.080838323 2:0.092814371 3:0.080838323 4:0.035928144 5:0.020958084 6:0 7:0.032934132 8:0.053892216 9:0.083832335 10:0.047904192 11:0.065868263 12:0.05988024 13:0 14:0.020958084 15:0.04491018 16:0.05988024 17:0.032934132 18:0.080838323 19:0.047904192 20:0.056886228 
-1 1:0.077120823 2:0.082262211 3:0.038560411 4:0.023136247 5:0.041131105 6:0.01285347 7:0.028277635 8:0.097686375 9:0.11825193 10:0.079691517 11:0.038560411 12:0.061696658 13:0.010282776 14:0.043701799 15:0.06940874 16:0.023136247 17:0.025706941 18:0.066838046 19:0.01285347 20:0.048843188 
-1 1:0.10444674 2:0.084798345 3:0.036194416 4:0.016546019 5:0.02688728 6:0.014477766 7:0.021716649 8:0.093071355 9:0.13753878 10:0.037228542 11:0.055842813 12:0.072388831 13:0.006204757 14:0.020682523 15:0.064115822 16:0.019648397 17:0.032057911 18:0.064115822 19:0.027921406 20:0.064115822 
-1 1:0.071960298 2:0.10669975 3:0.047146402 4:0.027295285 5:0.024813896 6:0.0099255583 7:0.014888337 8:0.074441687 9:0.12903226 10:0.044665012 11:0.05955335 12:0.064516129 13:0.0024813896 14:0.012406948 15:0.091811414 16:0.017369727 17:0.042183623 18:0.084367246 19:0.022332506 20:0.052109181 
-1 1:0.062937063 2:0.074592075 3:0.051282051 4:0.013986014 5:0.044289044 6:0.020979021 7:0.025641026 8:0.081585082 9:0.12820513 10:0.032634033 11:0.053613054 12:0.072261072 13:0.0046620047 14:0.020979021 15:0.048951049 16:0.044289044 17:0.048951049 18:0.067599068 19:0.03962704 20:0.062937063 
-1 1:0.053763441 2:0.10215054 3:0.072580645 4:0.024193548 5:0.029569892 6:0.0080645161 7:0.040322581 8:0.059139785 9:0.091397849 10:0.048387097 11:0.061827957 12:0.053763441 13:0.002688172 14:0.032258065 15:0.051075269 16:0.064516129 17:0.016129032 18:0.099462366 19:0.040322581 20:0.048387097 
-1 1:0.1043956 2:0.082417582 3:0.038461538 4:0.016483516 5:0.019230769 6:0.0054945055 7:0.03021978 8:0.10714286 9:0.14835165 10:0.041208791 11:0.035714286 12:0.049450549 13:0.016483516 14:0.035714286 15:0.06043956 16:0.032967033 17:0.024725275 18:0.046703297 19:0.024725275 20:0.07967033 
-1 1:0.088477366 2:0.086419753 3:0.033950617 4:0.018518519 5:0.03600823 6:0.023662551 7:0.04526749 8:0.076131687 9:0.10185185 10:0.061728395 11:0.044238683 12:0.063786008 13:0.0051440329 14:0.026748971 15:0.070987654 16:0.025720165 17:0.027777778 18:0.055555556 19:0.028806584 20:0.079218107 
-1 1:0.069767442 2:0.10147992 3:0.033826638 4:0.012684989 5:0.027484144 6:0.025369979 7:0.042283298 8:0.11627907 9:0.1205074 10:0.054968288 11:0.033826638 12:0.044397463 13:0.0042283298 14:0.040169133 15:0.1141649 16:0.0063424947 17:0.012684989 18:0.042283298 19:0.019027484 20:0.078224101 
-1 1:0.091334895 2:0.10538642 3:0.042154567 4:0.016393443 5:0.039812646 6:0 7:0.025761124 8:0.11943794 9:0.11007026 10:0.042154567 11:0.039812646 12:0.051522248 13:0.014051522 14:0.014051522 15:0.086651054 16:0.025761124 17:0.039812646 18:0.046838407 19:0.0046838407 20:0.084309133 
-1 1:0.053452116 2:0.10467706 3:0.057906459 4:0.017817372 5:0.053452116 6:0.0066815145 7:0.051224944 8:0.080178174 9:0.095768374 10:0.031180401 11:0.046770601 12:0.051224944 13:0.0022271715 14:0.022271715 15:0.040089087 16:0.073496659 17:0.024498886 18:0.093541203 19:0.04454343 20:0.048997773 
-1 1:0.10179641 2:0.071856287 3:0.062874251 4:0.017964072 5:0.041916168 6:0.005988024 7:0.020958084 8:0.080838323 9:0.10479042 10:0.02994012 11:0.050898204 12:0.068862275 13:0.0089820359 14:0.011976048 15:0.035928144 16:0.080838323 17:0.017964072 18:0.074850299 19:0.053892216 20:0.056886228 
-1 1:0.099737533 2:0.062992126 3:0.076115486 4:0.023622047 5:0.028871391 6:0 7:0.020997375 8:0.083989501 9:0.14173228 10:0.041994751 11:0.047244094 12:0.060367454 13:0.010498688 14:0.023622047 15:0.026246719 16:0.060367454 17:0.031496063 18:0.065616798 19:0.049868766 20:0.044619423 
-1 1:0.05 2:0.07173913 3:0.023913043 4:0.026086957 5:0.013043478 6:0.010869565 7:0.019565217 8:0.12173913 9:0.15869565 10:0.076086957 11:0.052173913 12:0.054347826 13:0.0043478261 14:0.010869565 15:0.047826087 16:0.036956522 17:0.060869565 18:0.07173913 19:0.032608696 20:0.056521739 
-1 1:0.041467305 2:0.094098884 3:0.054226475 4:0.019138756 5:0.062200957 6:0.020733652 7:0.035087719 8:0.038277512 9:0.097288676 10:0.039872408 11:0.066985646 12:0.051036683 13:0 14:0.015948963 15:0.027113238 16:0.087719298 17:0.031897927 18:0.090909091 19:0.052631579 20:0.073365231 
-1 1:0.066666667 2:0.066666667 3:0.048484848 4:0.024242424 5:0.078787879 6:0.0060606061 7:0.018181818 8:0.12121212 9:0.090909091 10:0.018181818 11:0.066666667 12:0.090909091 13:0 14:0.018181818 15:0.042424242 16:0.060606061 17:0.018181818 18:0.042424242 19:0.036363636 20:0.084848485 
-1 1:0.053971487 2:0.13034623 3:0.067209776 4:0.015274949 5:0.037678208 6:0.0040733198 7:0.027494908 8:0.051934827 9:0.070264766 10:0.018329939 11:0.062118126 12:0.054989817 13:0.0040733198 14:0.014256619 15:0.035641548 16:0.087576375 17:0.066191446 18:0.085539715 19:0.063136456 20:0.049898167 
-1 1:0.10204082 2:0.081632653 3:0.064935065 4:0.029684601 5:0.016697588 6:0.0018552876 7:0.011131725 8:0.081632653 9:0.10575139 10:0.027829314 11:0.044526902 12:0.066790353 13:0 14:0.0037105751 15:0.044526902 16:0.06122449 17:0.040816327 18:0.094619666 19:0.057513915 20:0.063079777 
-1 1:0.09787234 2:0.068085106 3:0.089361702 4:0.014893617 5:0.029787234 6:0.0021276596 7:0.023404255 8:0.1106383 9:0.12553191 10:0.034042553 11:0.036170213 12:0.059574468 13:0.0085106383 14:0.014893617 15:0.027659574 16:0.068085106 17:0.025531915 18:0.080851064 19:0.040425532 20:0.042553191 
-1 1:0.093617021 2:0.070212766 3:0.080851064 4:0.023404255 5:0.025531915 6:0.0021276596 7:0.025531915 8:0.10851064 9:0.10851064 10:0.038297872 11:0.042553191 12:0.068085106 13:0.0063829787 14:0.014893617 15:0.029787234 16:0.065957447 17:0.019148936 18:0.089361702 19:0.040425532 20:0.046808511 
-1 1:0.11038961 2:0.084415584 3:0.071428571 4:0.019480519 5:0.064935065 6:0.0064935065 7:0 8:0.090909091 9:0.051948052 10:0.038961039 11:0.051948052 12:0.064935065 13:0.0064935065 14:0.019480519 15:0.0064935065 16:0.1038961 17:0.025974026 18:0.058441558 19:0.051948052 20:0.071428571 
-1 1:0.084548105 2:0.084548105 3:0.072886297 4:0.023323615 5:0.032069971 6:0.0058309038 7:0.037900875 8:0.096209913 9:0.072886297 10:0.043731778 11:0.069970845 12:0.029154519 13:0.023323615 14:0.014577259 15:0.049562682 16:0.064139942 17:0.034985423 18:0.081632653 19:0.029154519 20:0.049562682 
-1 1:0.08411215 2:0.080996885 3:0.07788162 4:0.024922118 5:0.034267913 6:0 7:0.034267913 8:0.065420561 9:0.07165109 10:0.028037383 11:0.068535826 12:0.062305296 13:0.018691589 14:0.028037383 15:0.056074766 16:0.052959502 17:0.037383178 18:0.062305296 19:0.052959502 20:0.059190031 
